{"weights1": [[-0.0004079709037012983, 0.0036501699046578963, 0.11734672160287365, -0.07059312209355961, -0.06186681396275434, 0.011406174680153876, -0.02428691892556896, 0.04125289931182833, -0.04773065861358248, 0.0979877467062224, 0.039721688824386196, -0.08912469788238218, -0.004998202588342581, -0.07042003089957409, 0.044009208177542614, -0.08319539096039513, -0.03577945568864502, -0.0688819537496997, 0.08450356796729058, 0.06236134010487043, 0.048653288606926796, 0.0751539641412779, -0.015313517878019045, -0.12136892012417394, -0.03970123604716392, 0.04137439683631142, 0.06243344408216234, 0.27956389060781345, 0.016736591944090853, -0.13252082074506624], [-0.10683154129363155, 0.036260092895482036, 0.04592999224475971, 0.003746287682965414, -0.013514676753832259, 0.1835102195415561, 0.10916124066981131, 0.06540077157650782, 0.006341978684550643, 0.15359588847381317, 0.12779412135165535, 0.10549657885328759, -0.08799197543314252, -0.07466278046592427, 0.11853736342380893, -0.11588209362222712, -0.06043040514788642, 0.06435629777993081, 0.13310969242173823, -0.016990517115427782, -0.06396197746174323, 0.14337465018239512, 0.13041097836504797, -0.19416109518243674, -0.07599934820436594, -0.09869707969962799, 0.04820900442747109, 0.06364724064358003, -0.1099712077244873, -0.17712569360377942], [0.08400588692060473, 0.02131743696611671, 0.021429479982692318, -0.041020262553840454, 0.013033579155399176, 0.05025189870026025, 0.0459840604009786, 0.017814697523237007, 0.010193352370863171, -0.12561433517217058, -0.017895226669366857, 0.020204712002049225, -0.07987300684754987, -0.06776587746391502, 0.08853300829863742, -0.07567142074378694, 0.047902252517663585, 0.014707429004432466, 0.028731387543201314, -0.15787404667803456, 0.09778886752131588, -0.02919523380649566, 0.08817906988037273, 0.0060950801641829165, -0.12580717065524186, 0.04735465861132257, -0.018798232485374787, 0.09650201877520184, -0.05604474456176209, -0.04204563412738459], [0.08304755187568805, -0.04395765589544876, -0.012248109731122525, -0.058842636892419045, -0.09253807722940598, -0.016716139115550085, 0.23821664541774878, 0.13867556217228594, 0.03513793502771187, -0.066314469230887, 0.09417921745211828, -0.10436918968462142, -0.06889991199773345, 0.0015398211348660116, 0.015563123941677429, 0.22901580068584756, 0.17800979101872633, -0.055645643925577984, -0.047357241434545005, -0.06701356270654521, -0.11847421646693804, -0.003717724447747599, -0.1298170782181, 0.15145847108315558, -0.05475204338749121, 0.18703448615912094, -0.028353637133935475, -0.04424865604187049, 0.050871645041997086, 0.06933827680671441], [0.07618889573199816, -0.03641048904717114, 0.07196166498377161, -0.06584850839599812, -0.06337410669703455, 0.13268784306908085, 0.18391207546354393, -0.03193964581076473, 0.1600811989096235, 0.007054774420610976, 0.004289427557436972, 0.007233146180658282, -0.0010307647039885079, 0.09869449046289147, -0.0009761357387164353, 0.020068060841155783, 0.13005564534984249, 0.08810926710292637, 0.06046168156859564, 0.24200345755618594, -0.006690197836919151, 0.013694140130292645, 0.011010105882770873, -0.0016672627967548445, 0.08805170704006193, -0.013941040695697085, 0.0446363366047722, 0.16349911703224382, -0.0157906653015908, -0.19388504473111923], [0.20747158941982483, -0.10751004057772438, 0.04733780232854646, 0.17856756803628462, 0.20666036874598304, 0.024976835833434012, -0.04158453538315718, -0.02187611572202839, 0.16405655747094727, -0.17965228416351586, 0.05450582768850332, -0.10900695563246064, 0.13091435615609384, -0.07907457513105243, 0.10488157602102897, -0.09395394171019138, 0.07705804469753019, 0.023359986664231343, -0.0903152095260282, -0.0298062347324573, -0.24814417958852886, -0.06309637271089272, 0.08476612034542465, -0.011654499052471505, -0.15216777868766052, -0.10120925104239956, 0.06255590026554102, 0.17520344213815292, -0.2576174111475504, -0.1552764565920162], [-0.058933572226012115, -0.06107757283853167, 0.0034115252246911055, -0.16314577790362927, -0.10298325945803694, -0.15960768044805967, 0.18059021786967538, 0.015707454093710015, 0.09307078974698176, 0.01944210707919414, 0.06763960958668185, 0.10048768317804231, -0.051229634380261894, 0.1284683613117715, -0.14644279253160705, -0.04236912751858744, -0.001002338991351558, 0.06828499330269909, -0.013520978886808012, -0.11547178360184251, -0.041651653582504555, 0.03701480797420522, 0.05530983867067862, 0.1730293870281342, 0.013121203684886888, -0.07824315657100689, 0.040076463595728924, -0.001037049565553569, -0.07130149761827025, -0.13822147071414856], [-0.0034209867902680957, -0.11525380804082308, -0.018450044360580092, 0.044001053032107336, 0.1346181003198163, 0.09230959520283813, 0.03711701169168151, -0.020772547480129244, 0.19822912363270118, -0.06728008865268581, -0.051671949935157106, -0.06157223506277201, 0.0386930192844508, -0.04975999702821102, 0.04395556367100098, -0.24947475281044068, -0.08528038849200088, 0.13301090157359682, 0.11740150416511685, 0.16295730643346978, 0.05344481441577105, 0.1121447541620787, 0.06666505338396828, 0.06700291038073392, 0.012352888788019536, 0.22118482881604562, 0.01404785395797807, 0.04699641781067791, 0.21182544256277316, 0.05313054075572315], [-0.03089520076911593, -0.08690989541955674, -0.08930527509599379, -0.05610453306904284, 0.1104499932615556, 0.06289334323857072, 0.05310668598975136, 0.004439771350872488, 0.06970197076419281, -0.03540343453914796, -0.008032321942623438, 0.0017731573684858068, 0.06029405240623196, 0.12901717783839098, -0.00742992008041524, 0.08918109587451716, 0.01731107423527196, 0.020566828035211433, 0.1264638082303938, 0.10747910920572268, 0.11306058394653414, -0.12173025274712355, 0.17066473465207962, 0.03187446415605587, -0.0030271578673370715, -0.10205389803473788, -0.07420246774750204, -0.07200038059743644, 0.03240182936692362, -0.05681420512918778], [-0.01723664434712954, 0.02356451172368255, -0.002947214839324743, -0.07502927196964958, -0.05060268086790403, 0.02760101658142788, -0.00892479980826985, -0.07506376489410961, 0.1666530785285011, 0.10592782574022519, 0.12830344672532148, -0.014827901283536485, 0.15125253604969252, -0.05319420670847839, 0.13017564183914487, 0.09526431817514909, -0.012905686286069102, -0.024416715678413112, -0.02161621440634271, -0.013206598152396956, 0.15568177826023222, 0.08371398298988189, 0.0010408550039329877, -0.04098153413578723, 0.018011469996338698, -0.003336311338929974, -0.15567121696059097, -0.14342979617718468, -0.012428422918235755, -0.11889472367171444], [-0.25369327371602496, -0.02057515347309357, 0.16181263368689655, -0.05586250459689002, 0.06373162046623933, 0.04808909041480025, 0.09893909345800189, -0.0016128820820378788, -0.0538866571862354, -0.051334981551507335, 0.017404994421518796, -0.024652635187550252, -0.014926212271677553, 0.1724320255434154, 0.07409175461995286, -0.10676609572701323, 0.06483335818785434, 0.09624818336311582, -0.038950122481355015, 0.053943128918299214, -0.01159583799930488, 0.07833405993769206, 0.0008515814936850653, -0.14722223497691186, -0.05066678223628495, 0.02059450247643499, -0.19729747730093763, 0.046501802799750074, -0.02177374375887865, -0.025200311868809257], [0.08240272143700418, -0.1313408731882723, 0.20894961397676323, 0.18963074820337988, -0.0859409034866579, 0.07060456711379186, 0.04925572827185981, -0.02392926654787992, -0.13013837655178065, -0.2523761644654607, -0.019591025894546397, -0.13757315220160513, -0.04193612867944259, -0.10827923309845694, -0.048707909411481065, 0.08053186052765032, -0.04176208878238447, -0.1025514688999802, 0.05826499950496901, 0.16180217025415683, 0.1000646719466495, -0.14184467765181538, -0.14347363877126088, 0.04702599909589376, -0.16981426098835228, 0.1707427908177339, -0.11737022630748564, -0.04251825360380124, 0.1559162709587576, -0.18759392818365833], [0.04151981305638839, -0.2742915125834952, -0.1309263035752651, -0.0003316614893744217, -0.07077667436561666, -0.07920448368595417, 0.12427746273048648, -0.05254587793473947, -0.13278772395725147, 0.10273516697371687, 0.06828539812117862, 0.14159508278274555, 0.1022468074569481, -0.0795372909046681, -0.01642317078348329, -0.018221984292517358, 0.07092384425827936, 0.12004527521436431, -0.1677360455161797, 0.09319091930759674, -0.012559977628720548, 0.15447954303998337, -0.044475085588472636, -0.12558404989475905, 0.10878183708600955, 0.15192250033640886, -0.1050106999075961, -0.0911306444667374, -0.039076501987299485, -0.0906921334282297], [-0.039009248468181934, -0.12555224312230212, -0.06871614118335337, 0.1148960514134057, -0.16061150300937246, 0.15775496774272008, 0.16401812745263245, -0.0035977359323837946, -0.1104638073029095, -0.0502027518402063, 0.08460449896561115, 0.07727826744781786, 0.12062335956347221, -0.21019552300321218, -0.009874864707202571, -0.026305473267444774, 0.0810710551836796, -0.02429174481600624, 0.006770434868244607, -0.1250129161886264, -0.0012711870317881476, 0.1343110820623999, 0.09195439224672483, 0.15094595356695317, -0.13204200957500845, 0.0010477470336722101, 0.134525816360863, 0.018943624150377758, 0.04108579448600554, 0.0003749688088977738], [0.07345233218816413, -0.04339145977001808, 0.05411163252166339, 0.11137123716950798, -0.07719076588412872, 0.21422136507610304, 0.023101292224607373, 0.006640598037294477, -0.008956563324259967, -0.019105539061756313, 0.017560914150938894, 0.13391210031079057, 0.1715039351070773, -0.027032708022682164, -0.0419492082953037, -0.07518002734493132, 0.12746440068629705, -0.09173503745130242, -0.1454117909985331, 0.01203541003494599, 0.014100009631617975, -0.18226997479433749, -0.05656468379412413, 0.00615962681673226, -0.02728233649562613, 0.0019024155646210862, 0.08425390144184619, 0.18718660870017723, -0.11752320259325784, -0.13634980529675547]], "weights2": [[0.21515231080933908, -0.04618309469222436, -0.0746059590328118, 0.017320453655658208, 0.0919579127258002], [-0.156277595203815, 0.16793723681805248, -0.008354965656159646, 0.03619173223072203, 0.008909835380400464], [-0.11924365400308845, 0.012947224966241885, 0.08043364126579881, -0.03281186763327645, 0.07956568315398416], [0.1043490304145625, 0.06034021242074431, -0.08516224886523721, -0.1275695932927593, 0.0008855955530063475], [-0.03036640768256998, -0.14168085376248937, 0.047943794459123515, 0.07921202719414375, 0.009095176312312003], [0.11510351939764576, 0.1318981609192082, -0.056289205788569587, -0.08146812042558611, -0.08085760706886277], [-0.009032868174254109, -0.020598718913276373, -0.14479279120517743, 0.12030356166657341, -0.04041436473378558], [-0.04726428940132241, -0.11397791377813182, 0.018765755760320097, -0.05476799584254938, -0.04610342518208756], [0.030852480767840487, 0.0005817060801645346, 0.08153091121634819, -0.08614644547642462, -0.00011868234672923601], [0.076150035341674, 0.06698528935657248, 0.17592222838833751, -0.1279199768234072, 0.12635379213193018], [0.04321246978250595, -0.1780667486648454, 0.03770614427893252, -0.04428873824631, 0.19091917842683728], [0.01919108438243479, 0.1508242346424967, -0.020539754534911244, 0.10622664903695654, 0.14831991523092775], [0.010652265272853107, 0.18241244963682088, -0.078245889389981, 0.025408462835291135, -0.10650522304417723], [0.019078928311053803, -0.007027527751410529, -0.06385396063809189, 0.049368741885656285, 0.057511128902476276], [0.09005602635338356, -0.07723178733817632, -0.023815111833090683, -0.0848694324104371, 0.022752948824541513], [-0.2222797836124109, 0.1545997347869772, -0.12410837211605728, -0.02773414170757704, 0.035903425490137766], [0.08765865281793372, -0.06679858397881365, -0.0102765532777734, 0.11358105120340045, 0.1294471831949846], [-0.016921334300559306, 0.06554527025038617, 0.06088248064625819, 0.08064026792482, -0.09523538706676249], [-0.1298583111849506, -0.02120460300732305, -0.029696241939839687, 0.059854717614583976, -0.03241882151344935], [-0.020579942406376433, 0.06956124674833244, -0.11592633136851044, 0.03905821024419853, 0.049247035451428695], [0.12367642550580044, -0.07406469532911673, -0.09846204468676033, -0.051116054118866265, 0.1724631363001996], [-0.08055659451679177, -0.052629905975650884, 0.043563863192109364, 0.02057786651233174, -0.0045598397647772715], [0.046126839803793195, -0.025156362896621973, 0.062068129987130675, -0.16482940455728834, -0.13656063354748327], [-0.05473317909280881, 0.027938208419144468, 0.1027190424846354, -0.026768085653205653, 0.05065508997256673], [-0.010273034984525989, 0.06044069138229555, -0.10080349177100373, -0.1230266539773689, 0.23580749404525714], [0.20065129418590502, 0.14594659434859436, 0.01065216261581874, 0.13605387422702506, 0.11314462570225424], [-0.08018356285303391, 0.027033639443502646, -0.11712375143316203, -0.09528184206029584, -0.09075944218636606], [0.09612944440923948, 0.037193847847241245, -0.16816816057726258, 0.015047959579772488, -0.0017639789249768213], [-0.008827979068777725, -0.20611020688461631, -0.09782526949854244, -0.090284994511142, 0.07926600372900398], [0.1406662551402699, -0.018542688538496943, -0.040618875046498006, -0.02591990625140486, -0.08054202855632553]], "bias1": [0.0, 0.0, 0.0, 0.0, 0.0, 0.0, 0.0, 0.0, 0.0, 0.0, 0.0, 0.0, 0.0, 0.0, 0.0, 0.0, 0.0, 0.0, 0.0, 0.0, 0.0, 0.0, 0.0, 0.0, 0.0, 0.0, 0.0, 0.0, 0.0, 0.0], "bias2": [0.0, 0.0, 0.0, 0.0, 0.0], "training_buffer_size": 0}