{"weights1": [[0.14502134932973612, 0.18480439720931222, 0.023616463732078763, -0.0780693332127893, -0.019196390483425137, 0.06432367674630478, -0.10765176011902174, -0.10775833902504149, -0.043726671850616745, -0.04397145851168883, 0.03299312835885542, -0.16778138573693546, 0.03888825533377177, 0.024384143981660743, 0.11074254137929823, -0.04506968541505378, -0.12877750155553325, 0.027386965407858406, 0.2288330814155319, 0.12177258488221235, 0.15283882476360347, -0.05650730935378091, 0.12094691612444367, 0.003374811165475526, 0.11046780436269299, 0.046202862655723244, 0.05155018975792727, 0.051807743808519706, 0.10027449820375896, -0.028714053166695504], [-0.11244860574932965, 0.12564344148793763, 0.06286054035074472, 0.07777401709309212, -0.11419029146783366, 0.03259732328000107, 0.1357982151278214, 0.0650467029019312, -0.007017646816293185, -0.025862761369782584, 0.058156459836244304, -0.012367399021183105, 0.1344949009814624, 0.021408605041282502, -0.010128084812015124, -0.13089048901845263, 0.022199398707602243, 0.010088634662110935, -0.14320554717773812, 0.005261652131558924, -0.03013609938549174, 0.057503037180675225, 0.08995412412107982, -0.003584007759426992, 0.13611934337213524, 0.0915762620252132, -0.022395654498178534, -0.028307456042734897, 0.13755757639567995, 0.046386726066673434], [-0.06261238361754143, 0.009342731423588338, 0.07644622674245256, -0.04959549356305339, 0.04037491202986818, 0.05194289389681938, -0.022347933542739267, 0.005840589044716893, 0.11999813177548452, -0.020596724177002156, -0.17370820254607552, 0.08270885530927058, -0.12973656370458486, -0.053620666893516314, -0.003283808996691307, -0.06253894192801006, 0.11957968348619974, 0.04271961703800683, -0.012637999483823279, -0.09575852701896002, 0.021509859513683807, -0.24174390320030878, 0.043663663675947435, -0.154759318811975, 0.01127814718903624, 0.07273677536134518, 0.14418275941977657, 0.0656362127401039, 0.06675771561173237, -0.035997459025279836], [0.14933311725989903, -0.0077854453083849445, -0.09676580911660727, -0.014019926198171155, -0.15655139185496308, 0.21776725849531076, -0.05182311130365293, -0.144581331423269, -0.0021703846445861237, -0.05992945886222746, 0.12151293160132859, -0.02693236077167714, -0.05278407854970804, 0.0004481584480185755, 0.0852898615205119, -0.16576063469975266, -0.04787280052991993, 0.12492532018303432, -0.14361898886509958, -0.11770067893162368, 0.1469833857776558, 0.011547562151069252, 0.01667838417180622, 0.10445210763133528, 0.006756093870070901, 0.05957257353448098, -0.12799499600117267, 0.03453693277262292, -0.05977036894937865, -0.00959958116902641], [0.06297120614466119, 0.11380172618044777, 0.007935131602582213, 0.1976665716049245, -0.01879594438620142, 0.12167554610124634, 0.2079652686945937, 0.08132255189587846, 0.10917929862819292, 0.024287872445701426, -0.21300477593607867, -0.15188930855925245, -0.05577758126964804, -0.09547594244391572, -0.029495513200283364, 0.04775997739585928, 0.017111286176168954, -0.0860137038462889, -0.06757428058711613, -0.006971722287808892, 0.06812009858664336, 0.07441794498936331, -0.15368289443692598, 0.025542933138716833, 0.06730358619454037, -0.09970100366741258, -0.020682352964985967, 0.027618785349501393, 0.17004882559758205, 0.04971053096250596], [-0.02756802461870287, -0.10192329493467821, -0.16435229180032862, 0.07745216675791143, 0.11780088212557514, 0.06126871654155065, -0.00261192245990499, 0.07053635415202798, 0.037875299350183966, -0.037943102905955754, 0.07550907857223013, -0.09624399344714729, 0.006575577018864883, 0.1432197331857382, -0.01624326866526526, -0.15937365459835057, 0.03177446743059108, -0.06159283797190458, 0.07989195604418059, -0.13704975892739868, 0.018387262593776623, -0.028285633903143148, -0.03469831615191691, -0.047994482523237875, -0.0265836054276246, -0.036577026791521666, -0.1436212332346165, -0.02198755400434927, 0.1306451274119714, -0.09148792911128989], [-0.06595094172893086, 0.006794792364824571, -0.06144663485933758, -0.02309875643680777, -0.10840897886850819, -0.06571676826456989, -0.005304075363217914, 0.11050826200726341, 0.037817893867566975, -0.041332640947653626, 0.03778991732926245, 0.17066211361229566, 0.03072995120957446, 0.22869768966080614, -0.11662919997349504, 0.031773842574321184, -0.0561613665956061, -0.018891479961772085, -0.08568128911574134, -0.0281865223627299, -0.042631541738242296, -0.16908459800984618, 0.005608816130332974, -0.02546929767789425, -0.004299536078723913, -0.0417281186212977, 0.10497944550979368, -0.09075566903872519, 0.09385125178988367, -0.20633690568316992], [-0.06584147755751556, -0.14322894920053503, -0.053125788649693376, 0.12692216999959138, -0.05886803342699068, 0.019036200588945503, 0.08532692016151502, 0.040967652360167015, -0.06723328298498374, 0.02220998374127139, -0.02113550024027346, 0.034093586813975424, 0.06664805885998419, 0.12026926920626546, 0.15534464495379866, -0.02422120920533058, 0.015530778530372059, 0.1414499304689747, 0.008979068257974045, 0.10283040401138727, 0.06222458414691317, -0.037193934383852406, -0.09132991434215713, -0.13294736039760777, -0.01352165723315747, -0.11227683493962498, -0.0028028136119084106, 0.17016366303276909, 0.20472467113553666, 0.07809718599468596], [-0.06485534390228725, 0.1661141138542504, -0.1572489708891809, 0.17710434407084502, 0.08332662766653881, -0.05208110100291699, 0.11383805094524031, -0.003681939693430728, -0.14134933448235829, 0.11048437603450477, -0.08781856884879134, -0.07410881410846537, -0.154809029507717, 0.1825131741769939, 0.2234879205530209, -0.07233640806626099, 0.02840072705739722, -0.028842623823472635, -0.1052005945759889, -0.13095207222964034, 0.12066574172636729, -0.17991059798600623, -0.031655160500614093, 0.06103663204256019, -0.07254665316442274, -0.06575752435788515, 0.0770010642122542, 0.140287878154271, -0.1989744600843507, -0.07518039744587175], [0.16450865337355589, 0.013686321206990662, -0.014184057255334049, 0.010897976441133909, 0.10936544652471938, -0.09943473689824689, 0.008891370884185242, -0.0845012718805722, -0.07516211326072421, -0.06784535029661481, 0.028081669513784296, -0.04862797133589625, -0.01492574746376902, 0.055038906718793225, 0.07504231195167434, -0.14140809458869072, -0.0272698259550419, -0.05171682581858964, -0.10147383904305328, -0.034240055595078804, -0.051956085450294315, -0.04294828243888604, 0.127061581874701, 0.018579563963079256, 0.24865286715280277, -0.0835299005789587, 0.0016739070232589751, -0.10650828699414612, -0.12568576493681943, -0.14579894279666586], [0.12831904513836243, -0.1451164053764327, -0.03749968671726677, 0.012302404878708737, -0.0598080088016859, 0.20526596678252118, 0.1297440365602809, -0.0888868988088789, 0.10040265371844868, -0.021950667212197583, 0.0193374822318673, -0.25274464698237786, -0.06867516337936452, -0.13694050133545252, 0.043079025264116035, 0.09441141449273405, 0.013911448578063278, 0.068345791813268, -0.1251197989023261, 0.04393585509915948, -0.12579694591299737, -0.046759178639057944, 0.09985523365117531, 0.008194319455497798, -0.05848132931550918, -0.05376090145217502, -0.07356379787650555, 0.2288756656567586, -0.03751143098815913, 0.10219747299258274], [0.13685517486858179, 0.09826282691850909, 0.006713252292325217, -0.1388839394043547, -0.12894384398764544, -0.13083807869844727, -0.07986111022724501, -0.0887421740350747, 0.02955523998905384, -0.04039230636895026, -0.037111463763075746, -0.008812605838241934, -0.018005700281089717, 0.017827915628007167, -0.14268579234628928, 0.11624061547157885, -0.05137458792411015, 0.05011523482280614, 0.10073944372132076, 0.026875806811493926, -0.005538903514806365, 0.10253037965440455, 0.21173763315031746, 0.13118929385184014, -0.02049523922988345, -0.17410500774462667, -0.01503077995991435, 0.07253614094559839, 0.04549471269185039, 0.052572955925707744], [-0.09492440257273904, 0.11437082363322815, -0.13891655185035343, -0.024171005287010213, 0.052154310597326926, 0.05794786116879507, -0.09399672902333049, -0.15294779490100419, -0.2184321800541234, -0.06497824607232118, 0.13783719688652338, 0.036158745128261574, -0.02006792571191666, 0.03207486450617465, 0.18135985697169332, 0.06259981655678365, -0.12207937709194948, -0.017098315156611067, 0.07958285462452448, 0.02658886349457584, -0.18153854512912274, 0.09763548387896047, -0.04018195715067384, 0.06922964124868035, -0.08979547180700326, 0.03898751808027054, 0.0015766505907147657, 0.0009812862081629524, 0.09273422138791741, 0.007329931553035858], [-0.08219733376144964, 0.0170836713210391, 0.05729638866425919, 0.14534083909858336, -0.1033027778749146, 0.022624088298751194, -0.18806994944437744, -0.2853316144040741, 0.20393896777091927, 0.16696602360314342, -0.09615698219726412, -0.26725890275493364, 0.21018245270382258, 0.03903358927523874, -0.08096855818164878, -0.1654306267870368, 0.07939503771531353, -0.03251713119962079, -0.070884447880204, -0.0927526390482658, 0.08393157486873101, -0.12489151852931804, -0.08268449170220624, 0.010105846716044737, -0.034027641773824356, 0.0009321114712590423, 0.051702435776411364, 0.02016009848798882, -0.025512357825587553, -0.03668350305313685], [-0.050042513031690376, -0.1914111755569512, 0.055886117970430554, -0.04298719241166408, 0.1108342018086779, -0.0502226141621786, -0.05055319523421679, 0.05171171926997697, 0.01982083244680332, -0.05498228509446149, 0.026239135518903525, -0.11429572460255139, -0.04512118081350507, 0.011072551547874631, -0.16905979250203454, 0.2602866369777566, 0.08370058148771714, 0.014667738457979713, -0.04400438556869721, -0.09777736747738591, -0.024475402653687323, -0.010278667736693572, -0.18656235808672647, 0.05675346748956231, -0.025997420806492345, 0.11106959623384507, 0.036228351459276505, 0.15890732590036896, 0.01694683394166406, -0.11105786500577104]], "weights2": [[-0.0277667111091226, -0.11725951472116394, 0.028615149203961427, -0.0018295145069016684, -0.06850279020083287], [0.045775116052513345, -0.049944656686551486, -0.1865926249940655, -0.19743702604602686, -0.104496158358558], [-0.10555730025491583, 0.039601636303066644, 0.015401997373569065, -0.03639037494155852, -0.03534214294230842], [-0.08496695182599578, -0.02667292656358522, 0.010255627208053843, 0.08460495764447999, 0.025331434351711646], [-0.06797996410188037, -0.0006053643606335928, 0.1845043332927748, -0.061948304682517656, 0.04926551873799311], [-0.0771225720801854, 0.15995811435764154, -0.00826523720916317, -0.11901945584738245, 0.07752715958384794], [0.02635175365219843, -0.008169010264743431, 0.014014587488609582, -0.026342756540240243, 0.09039639702167795], [0.16051272357676416, 0.26329095246983475, -0.01949136926120081, 0.18194617052333228, 0.045121639245075965], [0.08301855095590699, 0.1259428929445815, -0.06834230295548452, -0.017853033045186352, -0.06017246587911047], [-0.049473691964266264, 0.10877202526745439, 0.14092105075382744, 0.08730392308398446, -0.17047432985326044], [0.03876514237122465, -0.0821297196705114, 0.06643721363434256, -0.0999065675072602, -0.09817790541474311], [-0.11753927370470095, 0.11583459589044987, -0.11587023602508467, 0.06767273202686883, -0.11648536178932303], [-0.09453818540893263, -0.03894440554706329, -0.057499270332560054, -0.09043283131313672, 0.07169252550911533], [-0.23255916101589352, -0.06878721868277858, 0.1468872646909668, 0.10623634313162292, 0.09956191924479944], [0.020478729708616517, 0.03528804867942019, 0.026120388042644577, -0.010976670734198076, 0.21875975205431245], [-0.06968786102340728, -0.04593864345079704, 0.047324933066723765, 0.004047495306315148, -0.07893872349307851], [-0.04885343074711794, -0.0405101517168413, -0.050616552352664004, 0.04082319176578549, -0.20511118725662203], [-0.03647375206148042, -0.1378168667752438, -0.1102086375055718, 0.09488838605380516, 0.0061981296923624175], [0.1576804173735107, 0.030292073852961045, -0.18319762658857838, -0.12892798104924527, -0.14117906570248973], [0.2148306659298653, 0.13973228964846457, -0.008320040032367814, 0.01719901101461747, 0.21950411899154176], [-0.1735635065955291, 0.07195843073378332, 0.10489596330720902, 0.03557411193287025, 0.10377578478235246], [0.004886279352740524, 0.12124974404527203, 0.03847272296542423, 0.05470768541844956, -0.14981559016893006], [-0.03307189218889247, -0.013808457138586378, 0.03898342013335038, -0.13291655955981968, -0.040347290554737035], [-0.00984833265491219, -0.09660769376721753, 0.10872051860737, 0.18707310984507455, 0.12506077127698137], [0.09750991411235434, 0.10886682484026969, -0.05112975333106157, -0.0064904566915038354, -0.05504735524701498], [0.0851883951744615, -0.05452018427985375, 0.1122526651097977, -0.1103688442875706, 0.2084015183834195], [0.10213948410956064, 0.12724293290360733, -0.08543944873874888, 0.07022536820271258, -0.1388123618358111], [0.04339262680050548, -0.2679616464230169, -0.2110491720206183, 0.04565102114374683, -0.1493665316588566], [0.08740772187637531, -0.03499086422728474, 0.11823381492161329, -0.05289981323547293, -0.027230699888948103], [0.03448694500695484, -0.005296606366659005, 0.11754294939907572, -0.037559102664411675, 0.0100468603799047]], "bias1": [0.0, 0.0, 0.0, 0.0, 0.0, 0.0, 0.0, 0.0, 0.0, 0.0, 0.0, 0.0, 0.0, 0.0, 0.0, 0.0, 0.0, 0.0, 0.0, 0.0, 0.0, 0.0, 0.0, 0.0, 0.0, 0.0, 0.0, 0.0, 0.0, 0.0], "bias2": [0.0, 0.0, 0.0, 0.0, 0.0], "training_buffer_size": 0}