{"weights1": [[0.0809515915581903, -0.07312110150049407, -0.10616876994490768, -0.028587923098920293, 0.026199563319865216, -0.15353196643255412, 0.10363785760656159, 0.06941294145651453, -0.03231597399559147, 0.055292997990293274, -0.10341708654275733, -0.08327660405794103, 0.037496502357884806, 0.20213572222075601, -0.12206824131922778, -0.12066967262378897, 0.001902213771524964, -0.011556984831488619, -0.02445662761629197, -0.01881281046334901, -0.0731147796458302, -0.15020367949990135, -0.09866465876360535, -0.08179974503104497, -0.06861423179512144, 0.06250713613873436, -0.11318796327960323, 0.06199887382412927, 0.052525819455805416, 0.08641170211366588], [-0.2048181671751241, 0.05478922346629056, 0.029664913311721282, 0.06912572275587377, -0.05421759712388649, -0.007004389449830298, -0.11307791767680936, -0.045594783617479734, 0.040504526244481275, -0.01950351383158845, 0.12730344237498545, 0.03171241022477541, 0.017657679969680234, -0.03043828037393643, -0.008515681863281966, 0.3305583066496355, 0.10974096256331003, -0.15861453853371046, -0.05864901317470601, -0.026085266347937033, 0.10904902433727928, -0.10122665860216287, 0.019315587675542895, 0.03720569545076469, -0.017986994379328904, 0.024849266366204187, -0.09982190034950934, 0.1333095784000329, -0.03589237287046741, -0.038069734414878494], [0.046221485784415886, -0.04828989824517055, -0.12238128224393532, -0.01962401449678527, 0.05503567510585609, 0.19360021595487617, -0.1635533780936581, 0.13682422096937893, 0.1376543591777504, 0.20379295524758453, -0.2687362023384523, -0.11947096963506268, -0.018705801304178007, -0.09034304386971265, -0.20397627969627902, -0.106844359811929, 0.06964517416092435, 0.06655081674357403, -0.0531076466256257, 0.07298502223612612, -0.015553566497109607, 0.042174421846859905, 0.07176532612563347, -0.1726003528680205, -0.028964352520047393, -0.127702510410133, 0.08321758771382115, 0.011500602254997556, -0.17744270946725002, 0.10235236296816866], [0.06533505658468279, 0.03010462286737006, 0.02423143815395286, 0.1071435304519, 0.14416254290565364, 0.10144685649590937, -0.016418718424463494, -0.10867966127240808, 0.06682080810339897, 0.08218120730058759, 0.05974103698401623, 0.0810691975662677, -0.06552952460642154, -0.12953300651897365, 0.006902947386181914, -0.09805852454615102, -0.167510670999206, 0.07009544873614261, 0.101685395141888, 0.1435863818494693, 0.10990114389744679, 0.005609447727355377, 0.2519300381112176, 0.2218421560564904, -0.08949202767364865, -0.12933687552219644, 0.15961699578175703, 0.022788087303956442, 0.03421741084032435, 0.0668403395715383], [0.13234865138908622, 0.05873689708290689, -0.0006154784377402016, 0.07680389933203277, -0.09977033490815755, 0.03436587250927711, -0.04848567980600817, -0.1001298245800703, 0.09361677975657252, 0.1761715302356592, -0.21056752571233595, 0.005461536168365629, -0.17537543398172736, -0.18561604530494777, 0.005691001239670198, 0.022788663446171725, -0.08434365547084398, -0.0176301032429653, 0.04450404763589336, 0.05064377513509491, 0.08489608176666019, -0.09610279114485015, -0.05920808102128246, -0.12186585656737683, 0.008484994232124725, 0.07549076229844649, 0.1005349456194631, 0.10204741092902724, -0.07450514128632461, 0.023917841823529545], [-0.06841565748365643, -0.20672398426084745, 0.042228252147870265, -0.17785967859813245, -0.032025209708493874, 0.13663548932579808, 0.10740847342782472, -0.18771025160239582, -0.11855673903589672, -0.05464961888630884, 0.027763850196850966, 0.04558714423255597, 0.050458936091547016, 0.11752048178682153, 0.15624262432476904, -0.023301823359193258, -0.05648101267618372, -0.1197263564346594, 0.028338282734640646, -0.04389860039734442, 0.16495760309866997, 0.10189512365995845, -0.03990615556294608, 0.0010016580954403359, -0.023956505032750357, -0.19588707101063108, 0.08609948039988435, -0.07939521572847809, 0.20521091168531536, 0.02465089302711064], [-0.15433568838182374, 0.06592800479865411, 0.014347523940167611, -0.14393983801127577, 0.04064376190400412, 0.12152059353662928, -0.06558328829645726, 0.021149560519637612, -0.07628870698956111, 0.12101777453442926, 0.04158430713753182, 0.13301748329776522, 0.05943526980636308, -0.06485679157323646, 0.2266035372472376, 0.11949665744348688, 0.1522559098002595, 0.004798256800113482, 0.019852882808790898, 0.00043020269103442643, 0.043516707350258615, -0.008943997010260921, 0.11992426644306797, -0.04485038748218174, 0.022110780637878986, 0.04759315083988833, -0.14335078230430062, -0.1069301764044955, -0.025589700607090673, -0.05416601577538807], [-0.027824891039029877, 0.03319401310149869, -0.008701467600575266, 0.29609304088667876, 0.01428323023993777, -0.006186161114666095, 0.16526524865592054, -0.1207211114963456, -0.10499233538206643, -0.027019416109703667, -0.07523870151244115, -0.013950296116419587, -0.11328905425477823, -0.013410536638336018, 0.10429389681983132, -0.02890014942836158, 0.05019991819765186, -0.1444906944249879, 0.21771793574626253, -0.17644160129625003, -0.23626052194098537, -0.014731153392944741, 0.03751256260887932, 0.19371703072498833, -0.019413274897977964, 0.07041558645740321, 0.13857752194613548, -0.028273845941073975, -0.08749918505667392, 0.17420171744467072], [0.029687007001183964, 0.10300453544794513, -0.18903338566155664, -0.05004345962929081, -0.030542698933345776, -0.05238012344208425, 0.05243436656462215, 0.028585909071902872, -0.016857174699655107, 0.015335941216361086, 0.09556192308581624, 0.0535494941843229, 0.05257069457692546, 0.1298147303024383, -0.043906477119454515, 0.16709616000358507, 0.013969731485929643, 0.0444554317575302, 0.28192551809056443, 0.03431719722957842, 0.05134533566670473, 0.2275335106172015, -0.14427585169479104, 0.19765586037788774, -0.01917286886731262, 0.034515786355874815, -0.00029831308189897916, -0.05064851326510024, -0.027951979925293326, -0.04319765145844246], [-0.061132376129858446, -0.14395805634283457, 0.05102722254685889, -0.0830312200386219, 0.03830965072121967, -0.029170581408690596, -0.20625659215415537, -0.0005159495191856158, -0.11688154880385991, 0.01303556789925476, -0.10994554764049302, -0.06797656603092558, -0.03618343945175209, -0.005991671993502306, -0.0859329212769241, 0.11059185527042868, 0.09754293918672574, 0.09221484496823745, -0.09336893009001711, 0.012206683091652125, -0.006057215097686069, -0.09922661302996325, 0.010618543995559344, 0.013963790967904066, 0.20428762805564085, -0.11835704691752734, -0.03535710363564122, -0.09445413144189638, 0.001821335478002016, 0.27646545786043464], [-0.050811865608214574, 0.07243360909978062, 0.15288099073762737, 0.029079242187388873, 0.04446549163077324, 0.05798091360877881, 0.10752784394999192, -0.20802392568685885, -0.06903088140842774, -0.3041246910130496, -0.10700999626081893, -0.04307613774551755, -0.04953425509156125, 0.005435582241481128, 0.034951051129817445, -0.002193590936790734, 0.017909743770226482, 0.05865427979459342, -0.099806201800621, -0.1064772617089705, 0.1913682814729327, -0.1587755474722993, -0.09253677418408095, 0.04931012094978828, -0.11597808025352524, 0.05814985089766637, 0.07371687794576186, 0.1591985077070576, -0.16787746534594455, -0.1071786584407596], [-0.18997778174930066, -0.0016775585318561466, -0.06218956249626753, 0.011446622752907481, 0.0632529737243211, -0.04431039334201481, -0.17271019601943796, 0.06293526468905324, 0.061434248024794795, -0.06045570712903105, -0.08760891061768643, 0.08306141998333372, -0.09620097279118206, 0.165397276812676, -0.19285603095000534, -0.024712236964684414, 0.2137836837370164, 0.048024249993151844, 0.06834861888079331, -0.019853276801316835, 0.04978289012933719, 0.1857758236257385, 0.025814824512634484, -0.03910980516031021, -0.02526068939183946, -0.11111719062522184, -0.04335148995461878, 0.014441394499786854, -0.1261430069804857, 0.09397033755598919], [0.024828980868146194, 0.017747641871005995, 0.25771487729782905, 0.008702027393690503, 0.028939732005896602, 0.005415765000914132, -0.010603323679331091, 0.06195963691627526, -0.09206831338930638, 0.1804941597039597, 0.03629645991514754, 0.06364230716728703, 0.2301781955480495, -0.010164688709542513, 0.08028884832266708, -0.022188531246607707, -0.017444708580697545, 0.10817296090246392, -0.08802989973799856, -0.10922405317457179, 0.1061193710794906, 0.0392105060545222, 0.07241426917591114, 0.04871276486946179, 0.03312480555045274, 0.06753836817620634, -0.07307810745996927, 0.05795826152664943, -0.0044841938243229225, 0.06734324624243447], [-0.1758375202864605, -0.11156114391056778, 0.23511965347299624, -0.09907211300039656, -0.15250071677173704, -0.015442578425400822, -0.23997768905157388, -0.10674546681312769, -0.04344064615760932, -0.10712117405890437, 0.10814684308531719, -0.07146116384621785, -0.16759774925481405, -0.11923360150766378, -0.0573985356919287, -0.03725005897898755, -0.19966636611637287, 0.12491551505233418, 0.09079256729124374, -0.08496954071207813, -0.2566965084201058, -0.09113619983290583, -0.0704061432958074, 0.1405367220728228, 0.04851954006637954, 0.08399619633699223, 0.05140861779125514, -0.03459651395663506, 0.17969285592680828, 0.023641503170136968], [0.11420311802947836, -0.024223492291796354, 0.20886798694485417, -0.026558020758346165, -0.07856469278493854, 0.13931848208949943, -0.007267937079799419, 0.07047934414749739, 0.023563550526682832, -0.08467995751101837, 0.004985817391384511, 0.05333770119155552, -0.07570007258906895, -0.028673872948100965, 0.003029385735384799, -0.11307255758472415, 0.060381168500159225, 0.054855702082100534, -0.1451217369223034, -0.014611424496405463, -0.02351163020715196, 0.23916240842777842, -0.06348512828106898, 0.12447677760445415, -0.09772043962820333, -0.03248827275376059, -0.10911648035684217, -0.041257182626912164, 0.14754164360712477, 0.1849521276120202]], "weights2": [[0.0039491539674977785, -0.026946584015551944, -0.01700896634922613, -0.008802520024179498, -0.010755278319653915], [0.0903477862617455, -0.014943980837715379, 0.13369719134540906, 0.0005709658661810583, 0.13411997683497645], [-0.09886111425823346, -0.07646015894556044, -0.02112141256341608, -0.05690552880702934, 0.04850498204761054], [0.09428512027611602, -0.0858402901719279, -0.2155325784000106, 0.039273181368515125, -0.010928943995381038], [-0.07254846466606144, -0.0020471684698341835, 0.12255061800507037, -0.018221334947490037, 0.015246866214487842], [0.06241743631338579, -0.23551968806430224, 0.08431277671025114, 0.07864210586557618, -0.08021215132494809], [0.05678030232384573, 0.0015706329166047092, -0.11154505292449574, 0.013337408252096734, -0.09455952396059635], [0.07639237351597095, 0.03642682588992321, 0.10497760418564839, -0.09625547554970976, 0.09324598174041149], [-0.11271970272239085, 0.035836785353089505, 0.07586308743457706, 0.02052532934740496, 0.06196332342284692], [-0.05871081138795309, -0.04858464767348786, 0.09695751830672278, -0.00031149945202691955, 0.03659230344960441], [0.09260888702027158, -0.006836533092188052, 0.03394042021003001, 0.0024664989049128735, 0.07204294170947695], [0.1097718249008891, 0.021227593922615362, 0.11922242276099122, 0.09665056161558352, 0.03733785496047719], [0.048139385796621054, -0.09406230863415867, -0.21498156763553702, 0.1567384844008159, -0.18266795580320103], [0.05913117162054561, -0.0654191108055894, -0.13968174059848712, -0.05141590454344518, 0.11584348477333334], [0.11211794289511752, 0.032131682628737106, 0.1520128551350205, 0.04318051537884194, -0.08574982460666036], [0.1332975444537111, 0.0654226601251852, 0.06628007080150713, 0.06962700790237696, 0.035360115483481835], [0.10414589799830024, -0.08850390007911174, -0.02355314578399502, 0.1838127478566258, 0.012127304050639207], [-0.023495407854413605, -0.15352932616249318, -0.10072603835499278, 0.05217036610730348, -0.01124620856805329], [-0.02772136835122759, 0.1217416059244249, 0.033895755177827155, -0.03823935946811202, 0.03240351294535904], [0.045792647836346706, -0.11773523201904397, 0.04431862307241247, 0.15506918847565088, -0.11778373194663408], [-0.10647500955974197, -0.11218010622675854, -0.10386525764272887, 0.11003820746995681, -0.025118022812862142], [-0.08632441750447387, 0.12055355949053866, -0.03922349063325653, -0.01542230184721008, -0.05234037073805792], [-0.03645385192261765, -0.12732579550205167, 0.08380667378425842, 0.08836542715234275, 0.10255475715516887], [0.1347543490522637, -0.06575563467482554, 0.04628328755838253, 0.10655003820550482, 0.008011778085987615], [0.049765070403787956, 0.09268461702608245, 0.03991182121091541, -0.043099999292726655, -0.08381054663282456], [0.007173725897407205, 0.13433643679899007, 0.12622628560751611, -0.08672766253423721, 0.04759011042617448], [-0.02226460626526772, 0.022812423596295678, 0.1035348835898359, 0.06990713351006476, 0.21036004307792508], [-0.04921869532522009, -0.09992951951327497, -0.012885919198569636, 0.14007011834415592, 0.11276243788015926], [0.0510296837127452, -0.005555095929759229, -0.07461509337801195, -0.09185602643738335, -0.06950620262873772], [0.03796446523905489, -0.1581090710542193, -0.03653145535602855, 0.09360758631148688, -0.08758240784244664]], "bias1": [0.0, 0.0, 0.0, 0.0, 0.0, 0.0, 0.0, 0.0, 0.0, 0.0, 0.0, 0.0, 0.0, 0.0, 0.0, 0.0, 0.0, 0.0, 0.0, 0.0, 0.0, 0.0, 0.0, 0.0, 0.0, 0.0, 0.0, 0.0, 0.0, 0.0], "bias2": [0.0, 0.0, 0.0, 0.0, 0.0], "training_buffer_size": 0}