{"weights1": [[-0.06089210461832437, 0.0579315112307109, -0.009454833760268996, -0.1210715246168293, 0.09380433179296215, -0.12441813334978163, 0.049172506257717186, 0.03710374206491782, 0.011715520209312168, 0.04729575411005456, -0.09565114342020299, -0.08875830502282767, -0.12109043271941321, -0.1286084010441489, 0.05105277438412436, 0.26478445579338866, -0.07328484482934461, -0.0800797736893259, -0.21640327305943421, -0.10185992676699895, -0.007329622332298687, 0.06201274113424521, 0.10695506826682762, -0.060642267695232246, -0.07073293235540666, -0.01704747330918516, -0.1642100603290787, 0.06688828051569444, -0.015933088813522952, 0.076879456737399], [0.07826616281615591, 0.12479326710094085, 0.05765884245359024, -0.14931665928762933, -0.17772859638353306, -0.010115413312667756, -0.04046474856003828, -0.15025554204247818, -0.0660914518923732, -0.04936390516286776, 0.08103616953891349, 0.04134089926828231, 0.04213495974175546, 0.2325216555399035, -0.046268493558560574, 0.01771239310083577, -0.1493564544181108, 0.17916904245475032, -0.17086508339281628, -0.0818645832276748, -0.0767608047804222, 0.06975889595100868, 0.27640074869008885, 0.1897260749765134, 0.20875188235700778, 0.12163702635305747, 0.15567806995298208, -0.1117782839132276, -0.03558624830615901, -0.024654359437189844], [-0.14914598393867934, -0.057269258369858494, -0.19687470504225074, -0.08769695878433911, -0.09169127097683896, -0.029538785666024105, -0.0948327408543864, -0.029530229704151686, 0.0542862202961261, 0.1540314261691219, -0.018412092952872838, 0.020529446322284553, -0.01975187394241765, 0.03828463262153285, -0.040618344366355974, 0.07719653742315226, 0.040425306976130865, -0.13726643380954176, 0.20283235385134174, 0.005090238148594493, 0.12100991653651215, 0.19674892266894203, -0.14304358509108214, 0.12643216949017086, -0.04674438636587021, 0.09721766477287325, 0.058725275609026066, 0.006637176392142769, -0.10789902399923518, -0.18231218125185944], [0.030709550035497087, 0.03649437752761988, 0.038796237952655924, 0.07437972103224139, 0.12679346371869382, 0.13450589730234283, -0.06655782858391394, -0.23897014545805428, -0.11714187795129805, 0.16578379064986226, 0.11676555320197156, -0.12306977315839165, -0.08871591007198186, -0.0686172784346332, -0.09599484349189852, 0.10999645254156554, 0.25599356698824177, -0.0015533979554316324, 0.17754293908783694, -0.10860231861574487, 0.12919920267511617, 0.032839167560066426, 0.02835296145227702, 0.03350513566194813, 0.16595560191320569, 0.059606751724218365, 0.06990185577721118, -0.20230120348676653, 0.08366394802251444, -0.08870911975367061], [-0.0015402845828198179, -0.16514802356326452, 0.12108232517712987, 0.003810426543955874, 0.11174375586029708, -0.02589417309133764, 0.12785966295433127, 0.033246964456907335, -0.10861984358303936, -0.038115947922973764, 0.06485609074640965, 0.15782199604283667, -0.002731054816943289, 0.09054087410472067, -0.031510564717790325, 0.009758537302560223, -0.07354325902039986, 0.008890900866843483, 0.06405225015065694, 0.15621483539877012, 0.04859641515651682, -0.015178901404390602, 0.001177956164284658, 0.17833683387000912, -0.050797301981386656, -0.0496196506887122, -0.028859048696897423, 0.02997190693552393, 0.22438040157396025, 0.16443150273243745], [0.07833238772422937, -0.09660723546959867, -0.020925806960177276, 0.059688567443054744, 0.03967510987461789, 0.19211359143924245, 0.04025369965918972, -0.15266268055573243, -0.08499935864629843, -0.15806351510155903, -0.04612630743910043, -0.049752151593532794, 0.17033933331189033, -0.14039720509168624, -0.17541967203748932, 0.0010395257256664882, -0.2752804859996381, 0.10937481496464391, -0.17893231333237164, -0.05904229264104088, 0.03883370201187722, 0.1399291895306057, -0.026279106056621395, -0.07274769531478355, -0.2098708630945313, -0.004031750556337799, -0.021811259356399097, -0.2198688244946733, 0.02006714170490723, -0.02453873819902156], [0.14430614778180775, -0.04653129463421243, -0.08669368657083408, -0.23184782087563793, -0.027337881303736447, 0.09578930524736898, -0.13939811025860901, 0.0041454018714851505, 0.10321666386730188, 0.1749173626774454, -0.1680428712741182, 0.08182370292607329, -0.12273654053664984, 0.1422780514489591, -0.18354378461869258, -0.10151467033886252, -0.11406457465021742, -0.019885363869887318, -0.02648316023091244, -0.023417493098170247, -0.0351357985886464, -0.04911508684909072, -0.04507367498390526, -0.15835180397405146, -0.12036947031370032, -0.057195820237345874, -0.09517959255365795, -0.1427392591812193, 0.0074537458347998286, -0.11757452771652599], [0.017978000428048264, 0.020678140940972787, 0.08775796081366345, 0.05303971515313608, -0.05248888237224822, 0.056982567405510144, 0.000957024692819551, 0.0976864031368553, 0.021660103991778323, 0.12837470501592563, -0.09870633135637835, 0.05192635531755246, 0.008842114307123101, 0.02586005672286362, -0.0795414550224637, 0.05563623767443563, 0.06407724415838449, 0.1642660801759011, 0.1560216623456305, 0.14339978663653485, 0.1044655018016051, 0.07144409415011337, 0.15516115079559423, -0.0659914399156198, 0.05325707834577134, -0.033651734456265084, 0.027963482124710132, -0.09610343405118868, 0.08001222701009564, -0.16841827797884246], [0.15502670541605756, 0.1961112296223828, -0.011000365368657707, 0.006003391227817657, 0.08383610065256167, 0.07624839100119205, 0.034270408623723214, 0.012767102955510395, 0.1034899341461587, -0.047597808884064806, 0.001187093677607492, -0.0942624909703117, -0.0659903943371843, -0.09988409094836811, -0.10499463670662741, 0.178376084750788, 0.13454282633522716, -0.06627849278492597, -0.0056570742907779475, -0.018123907169548824, -0.06770798532793337, -0.014208493407163642, 0.07459072071135137, 0.03317543649894755, 0.11731428552168739, 0.013004715810532644, -0.0621234161446203, 0.06901980468272961, 0.038922366668728114, 0.1893416332613475], [0.029272470474167003, 0.1507524182569205, -0.046522251231033845, 0.1107346048543506, 0.09128485196047555, -0.09582269881339667, -0.07037719780333966, 0.06884272806811464, -0.04066614473097157, 0.102458853857829, -0.06020398512340639, 0.14038270642280634, -0.059071919570413335, -0.04920510613047278, 0.008507812482031701, 0.006519723913036213, -0.0257432779691329, 0.008350402901170995, -0.051416562671856764, 0.10588362219736797, 0.014098999578895786, 0.05799175049000243, -0.023095179684096953, 0.06173632235651327, 0.13325605189743167, 0.03568686852870484, 0.15899934178339917, -0.0075298936344934415, -0.008183259565409096, -0.10326797085175009], [-0.1894529758854994, -0.09517527165445813, -0.04282911254197073, 0.042713836596591094, 0.11515511035301502, 0.14922174698512244, -0.05745176709427005, -0.07596423901078726, 0.018885039628813462, 0.01563531663848165, 0.0014345437624977957, -0.003112190532843043, 0.07212563804823158, -0.03632622461573356, 0.010635029272007143, 0.0307205882979997, -0.11913611959168213, -0.004215077806291669, 0.09188632267691489, -0.14831765675834868, -0.10580823855518551, 0.02882061168696521, -0.040408524954075674, 0.06657763810533543, 0.044398496128925546, 0.016849319565647357, -0.20160556062301338, -0.12314783302966503, 0.09744456986129409, -0.09109717798108159], [-0.09557687917432456, 0.02411577871453872, 0.056317353739214926, 0.017906389088643813, -0.021679512251585903, -0.19258310841254261, -0.18452162422860294, 0.05961788031502774, 0.15226812504243484, 0.1044499744486092, 0.04953967235981153, -0.031623236991060975, -0.04908032701797219, 0.11203596140576805, 0.020823546064513063, -0.21026363381648877, 0.007825529786241844, -0.19520834425720654, 0.1966924966037847, -0.053988457164836724, 0.06678963484848867, 0.02849897959343885, -0.034653017725041875, 0.10198422439996885, -0.10797872286751811, 0.11652503564151873, 0.034271750903310076, 0.06594725277661816, -0.17280655775444936, 0.05521589160346838], [0.006044983130793155, 0.01440265569726636, -0.1281001513758668, -0.18571561070640857, -0.1303228069616231, -0.13245171313154358, 0.13712622597078258, -0.04332464905213001, 0.029180344444819248, -0.12272675813260561, 0.09600107890875578, -0.050783468785558505, -0.02615721411549666, 0.05982758639740058, 0.0022525283468443047, 0.04665807637053664, 0.12860402633238535, 0.015538761953044211, -0.024457616410691652, -0.019606885563602485, 0.10007638727176141, 0.013356817131173591, -0.07007987557579391, -0.14404839135214453, -0.12478792181399737, 0.0772101387883832, -0.07175879115284454, 0.04049490855917037, -0.006394402860512818, 0.01901809551211492], [-0.03193238894944229, 0.08708548854779886, 0.021222893025401507, -0.09542414596658155, 0.06651111632955298, 0.08976421717643411, -0.05852789091035923, 0.07887670132298351, 0.1523216362359134, 0.06741882816905499, -0.25911217461748487, 0.018763660363025847, -0.06294091315443533, 0.07392858486199776, 0.01537336966150317, -0.0477128400944086, -0.10598824944704993, -0.049112311587874935, 0.1383752488420422, -0.008058802301384945, -0.056376092690078955, -0.016921471983211252, -0.025188210741186448, 0.06993276467066623, 0.025420023202771893, 0.08987817122846274, 0.12654464741685553, -0.10232539815111225, -0.03374771704261941, 0.11241423423776864], [0.16712763146273835, -0.09958524058453277, -0.048539097350164234, -0.0513149640556505, -0.06720763986959591, 0.15014779264464145, -0.007383191007344147, -0.10975512313279377, -0.023837139507670704, -0.0138101478177836, 0.0240337014670429, 0.01693275932553505, 0.12925071604770735, -0.15460906552819292, 0.007424633803145605, -0.061933058475105045, -0.03617102921539825, -0.012634163175875927, 0.05280153425369763, 0.017197629787281652, 0.16466640046837744, 0.0205233462444579, -0.1303631830640359, -0.11581112499273086, 0.07141404900181286, 0.10099323662700666, -0.05818353092025689, -0.25149669368805827, 0.10711554442497889, -0.005850448222033905]], "weights2": [[-0.2539144555952415, -0.04334312827531762, 0.000631688514713017, 0.057377099293312916, -0.1583007783856472, 0.05388605759594981], [-0.06046851462726747, 0.012504667639771018, 0.01503317969050793, -0.08137102561122317, 0.1781316688021943, 0.09027031727212063], [0.04055534974065394, -0.03316520657652065, 0.0652994359405951, -0.07816859652346089, -0.0020276065856588963, 0.15337015035946566], [-0.02730170166914326, 0.009160577764425417, -0.09220423938325038, 0.1290011699239709, 0.028799404882320717, -0.07372068898467794], [0.13858593134128475, -0.174020135144361, -0.07092482137699234, 0.046973491781930755, 0.1533995588833538, 0.14925663323019941], [0.01938727540803445, -0.11131051087571642, 0.033069462107328515, -0.10722049246481964, 0.08001267688210617, 0.06807581524540905], [0.019804562050659804, 0.11391246235774524, 0.028418345649447337, 0.0007646246381663074, -0.06432167608290072, -0.13111183925783051], [-0.13226028977430931, -0.015608015050650074, -0.19312461885449678, -0.014054077224248777, -0.136795863742877, -0.13774206302087613], [-0.0779604692875647, 0.0254087690283973, 0.0730038191048523, -0.11135543207745308, -0.1869560691999004, -0.06279480513508309], [-0.11386767434809719, -0.12414975929281052, -0.02690611531962252, 0.25688450073416197, 0.10297070755931317, 0.13612794937608974], [-0.04126809845629642, 0.008302788872743046, -0.14117056638093414, -0.13202790295310637, -0.06600525749963741, 0.026550576547931484], [-0.00592494331799848, -0.08479729380738173, 0.07066589665964261, -0.11882239950538875, 0.049795489100572576, -0.010833842919998567], [-0.03500097400331358, 0.025951822695211235, -0.057114626519799205, 0.025387776836649237, -0.10818302751247469, 0.05908744109698311], [-0.06478438222196328, -0.032734773038124436, -0.01646961404147028, 0.07859185817729444, 0.08907363744534355, 0.017590375100579737], [-0.09771934389797537, -0.08701999509108578, 0.05722312285921886, -0.1270625599846442, -0.08934063024344406, -0.09517554931306046], [0.08072775335761369, -0.11355943877159656, 0.022110697031208063, -0.13666330428327197, 0.017164241350179136, 0.08249629880450611], [-0.12022010567448177, 0.13062383011794448, 0.06645305947605169, 0.01776562423557711, -0.0634816080563821, -0.05597413530254289], [0.029266480789052626, -0.009902146246110495, -0.1144139038178045, -0.0026479828170038635, -0.007503646806016594, -0.018682773678933697], [-0.05040798569566435, -0.05612775212837898, -0.00751154063877035, -0.010740107787203476, -0.04329011800624412, 0.15209702471520492], [-0.11943260051849663, 0.06950170369542095, -0.18353421375560774, 0.02108000072593183, 0.0602875358303994, -0.06904096284501714], [-0.03666332225094579, 0.017524358581641895, 0.0992637977853123, 0.016504373270293565, -0.06057729467319764, -0.01273967778953445], [0.009477674409936854, -0.06578863383779629, -0.09994310204375793, -0.12646000090188866, 0.02125609892567541, -0.13789964066390376], [0.05856197667136719, 0.07686034886830218, 0.08837108199696739, 0.14879744881531054, 0.19513568857743263, -0.08352782120621188], [0.009928439519260304, -0.04580622639587173, -0.012653102159631176, 0.019599105954610157, 0.20018174968148572, -0.1905539857020636], [-0.06771340723220297, 0.055716892216018776, 0.07407441201451857, -0.03885712065814874, 0.1017210872152718, 0.06529277933692339], [-0.05650708870963881, -0.047572539781494276, 0.02267728979957761, 0.04741842509680239, -0.12357150313574768, -0.030241533030686225], [0.13948126438222064, 0.10672992612509889, -0.036670226313835874, 0.004079393515686742, -0.08171905628218201, 0.02098777042821129], [-0.08182684924831748, 0.017551900600232758, 0.07201611458316261, -0.02355330212097943, -0.016522988400235427, 0.02582399526153587], [0.0034335678023262347, -0.19747602100163897, 0.009193254991222167, -0.08785164135443735, -0.022940306842094003, -0.11564664667704475], [0.11922156642046605, -0.038101297178362976, -0.1851609553483522, 0.19635297837480556, -0.026539674154917644, -0.05335357483930086]], "bias1": [0.0, 0.0, 0.0, 0.0, 0.0, 0.0, 0.0, 0.0, 0.0, 0.0, 0.0, 0.0, 0.0, 0.0, 0.0, 0.0, 0.0, 0.0, 0.0, 0.0, 0.0, 0.0, 0.0, 0.0, 0.0, 0.0, 0.0, 0.0, 0.0, 0.0], "bias2": [0.0, 0.0, 0.0, 0.0, 0.0, 0.0], "training_buffer_size": 0}