{"weights1": [[0.012479275322973729, 0.16603986735544016, 0.20120704777390577, 0.06670491332233691, 0.0008782619586159513, 0.05688270226942621, 0.039912846878847184, 0.05684310494796788, 0.11794629526438932, 0.08116264920512034, -0.14374809820224385, 0.060703758602164315, 0.04589509791363048, -0.07812952242815131, -0.0936648842369581, 0.2715126556680801, -0.08684946434679944, -0.08350483265885854, 0.0786309872913618, 0.03273724665931998, -0.1074011782161206, 0.10896877288486106, -0.17110057247906998, -0.0050546736444400855, -0.1282447286622984, 0.008548309642144118, 0.11599013212857948, 0.08005998706784054, -0.10836760172659213, -0.07356290365696662], [0.1727139351629513, -0.08570788943942646, 0.08026275590244952, -0.04291726097013915, 0.017062162764171874, -0.11399615221875746, 0.09599275871826302, -0.15510283979334386, 0.026434233468489228, 0.16172289558098943, -0.01963750554236141, 0.2933063131694995, -0.2043568684338872, 0.16999905899389345, 0.15581330781723557, 0.021011594537214615, -0.06895292888106853, -0.02455302623792719, -0.02198170739533739, 0.11675543590686184, -0.08936442377723364, 0.07756463047081319, 0.14319165386518415, -0.011808237882012764, -0.0025215464789438476, -0.050097458997608625, -0.00019172260282845788, 0.07848958334253878, -0.019843800261402065, -0.1958552498306236], [0.010567226502196615, -0.12376744726488323, 0.20481830424451808, 0.09234725771706385, -0.057383753740216294, -0.08017646760249471, -0.03491761494228288, 0.007786852331654923, 0.0965058363162827, 0.0008949990163802546, -0.07345728744795282, 0.19348426399562374, 0.01860733958427535, 0.0068813773831618965, 0.06540661866411067, -0.12634958999730234, -0.1672350067564641, 0.20942882029707352, -0.0820066830607294, 0.05006561695420371, -0.027823125972727722, -0.01620771901106893, -0.17599861423902086, -0.013218015719067054, -0.12143642850110484, -0.06723729531520474, 0.1519748456688757, 0.06142720035994162, 0.24153899957979236, 0.01939389148056023], [0.12519473331761485, -0.1287768327100238, 0.29490354738598323, 0.04856624681313415, 0.09316028465751364, -0.08184842762487049, -0.0018396938140155313, -0.13672418310557416, 0.20052190249987648, 0.010681746746503335, 0.08932154292260512, 0.02890777877256532, 0.0022981175669749892, 0.03609014617430551, -0.28048186257254476, -0.03842508710063744, -0.02648930109338027, -0.033933328630639616, -0.06480807568516304, 0.05204086515122208, 0.05454236307873711, -0.0467195095743468, -0.05790542380882561, 0.1126212360155636, -0.07524279733216215, -0.0037052126732050315, -0.08461265781424354, 0.005575183617859521, -0.12944400781199705, 0.07677979130952371], [-0.04053410861763985, 0.21207865056089356, -0.02398791374635222, -0.21034667831049694, -0.005334502014858295, 0.08401005870224681, 0.08864311552889274, -0.08972442472379531, -0.04552867283285458, -0.06831727985291923, 0.007022329419241743, 0.13168610839237646, -0.09414130876281859, -0.04289524417263318, -0.11665204536379584, 0.030438946111436094, 0.15527198843007467, -0.0963515567714817, 0.014835837167809089, -0.006404173514435906, -0.066087242899133, 0.0650658682421869, -0.01611147743838971, -0.08767358716584639, 0.04989565269331333, 0.049220352590615024, -0.14128013984819907, -0.13772407817401652, -0.2695707383091907, 0.028645016052912475], [0.036000529080821395, 0.026728049601358946, 0.150950181768443, 0.06742909981879046, -0.022230451148120958, -0.03614790111402882, 0.05318040632364751, -0.05914729824643155, 0.1451134562641895, -0.18976001870565629, 0.06486738008387909, 0.03395632199313114, 0.03837516873625317, 0.25114183797499695, -0.20360920272253247, 0.0016346496649707835, -0.12419527311786982, -0.09461381713867956, 0.1255132919676655, 0.06551388547177621, -0.09824549735758425, 0.10217917987101831, 0.1450662990705291, 0.11185009397479871, 0.043320433909980964, -0.03178666923300982, 0.08398145206114017, -0.10773865426234355, 0.02046780824357174, -0.037058274937977274], [-0.070660283841361, 0.11110327994937724, 0.05401890408320975, -0.17784128401066626, -0.0939560074118494, 0.058326396746860555, -0.0071623092627545355, 0.002106151444871926, 0.006298015765908831, 0.026810632962822246, -0.01787534595704355, -0.04273761932973918, 0.00111256452404007, 0.051391813781567056, 0.027757019198661956, -0.1910460996920177, 0.14277686443045767, -0.1312839386506882, -0.028873932796689202, 0.028961622405301857, 0.12674176706005505, -0.05237264827028074, -0.0644183139393106, -0.10235386833076082, 0.13696510119081678, 0.15291858746725895, 0.034820726270760625, 0.09048028406364653, -0.04884426586607429, 0.04739454300834914], [-0.14104444964278423, 0.0483198214565534, -0.016729013200863393, 0.11850050467916856, 0.05033303146359114, 0.032325728812059994, 0.07570459404103788, 0.0019964444031592243, 0.014156177452690044, -0.16530600019254996, 0.048117971530619745, -0.05142154805099426, -0.1936084418976042, -0.026855162413244094, -0.06930262060310623, -0.12841943842565584, 0.05242994919123707, 0.01994976106618321, -0.06550476463421082, 0.018669996949984256, 0.055300206217119334, 0.031942825521177734, -0.014229536130863496, -0.10555655622684437, 0.029681974798999214, 0.036231794529343345, -0.10001968692523343, 0.07510728790646126, -0.05643170604899646, -0.0473839200355161], [-0.022891840675921656, -0.016684623791966086, -0.04005926681117122, -0.07902611348965094, -0.026786115158952174, -0.015842144023791638, -0.02372671972012695, -0.0037697105128046277, 0.04429881341831546, 0.01705849503955232, -0.08500534640197131, -0.08483744480562486, 0.017420657768960162, 0.11337676618562953, 0.16299046577143605, 0.06143777550988338, 0.22600637525075357, -0.1749580990370305, -0.04553893734287846, 0.0036079750803836193, -0.12077295815467888, -0.015082503208347267, 0.07634264615014032, -0.10112307607938731, -0.26259337824744033, 0.02058221508758301, -0.009093814424505638, -0.14545616656464258, -0.10230939632628655, -0.07879689419977476], [-0.05509118676045402, -0.09611810991441555, -0.14281029900797518, 0.05494591182591714, 0.07414300109718479, 0.06286494800498409, -0.08993696306870169, -0.1204555646712384, -0.03294990912603002, 0.2802535626082836, -0.07118175755795406, 0.03492977071664919, 0.06240208334646633, 0.009803544968598208, -0.01405336129116169, -0.0452173970476964, -0.02862334429018224, -0.09565530352659783, 0.1549059236891793, 0.07862988805975957, -0.08616984596661152, -0.1183973289676646, -0.12315303473299698, 0.04129539217435493, 0.001098523292812062, -0.016050128309407823, -0.06984941721532754, 0.02500894902186909, -0.05777193225197618, 0.08219570965074206], [0.011126668029319144, -0.2280929639282949, -0.0038426115855469374, -0.07611267101583967, 0.0930086777830258, -0.05368272852481307, 0.12407659554784214, 0.06045336211358257, 0.1384836775194197, -0.0488115820440166, -0.005529717152499055, -0.08995935301573778, -0.13504641592341154, 0.015923943756738817, -0.011739656374682354, -0.17211590781559732, 0.05106537336107943, -0.041048907270582385, -0.23214214837764008, -0.15312185117723787, 0.023552265122449293, -0.17143454717647208, 0.06835775129137599, 0.0679619355813894, -0.01842922363173601, 0.15050272060206163, 0.13877632469431808, 0.08203252953549915, 0.03542068048120823, 0.03293259301156719], [-0.056660300828814514, 0.13432182403034423, 0.015240055542868084, -0.02852850424547426, 0.031439432612068594, -0.06040245155389186, 0.14826945887973508, -0.0018666147846206462, 0.07827373620722694, -0.07104320853426975, 0.014370441416731106, 0.17179830299082266, -0.04876792750294523, -0.051602892973065764, -0.10359356543511722, -0.04752818308348557, 0.2032152066629903, -0.13057248379914127, 0.03247529469390816, 0.1254247703233978, -0.038462403208506885, -0.05976078144073739, 0.11546963956596845, 0.12564576815724546, 0.1781176967500051, -0.0028752359256686063, -0.024230104778307997, 0.028982462109716462, -0.019808029249842467, 0.041757811137111314], [-0.23079350247223346, -0.19966664654176594, 0.006510634905552439, -0.11018040669975387, 0.010584464820391968, -0.024258306425053933, 0.1462329497749138, 0.17485138613286236, 0.008771634154450779, 0.14433074824819841, 0.015465757136482917, -0.19365638018691345, 0.07262070476350391, 0.050547964455533556, 0.03039494926053248, 0.03762549061599411, -0.1830810883158857, -0.02227048232166473, 0.02242384670599274, 0.015338385019873464, 0.04400813731632305, -0.06354159528174104, -0.06028763043469957, -0.10333255526666403, 0.08519248258529968, 0.045140086838951925, 0.2734733515978547, 0.014963526889310323, 0.02905681646460244, -0.0035974421248922586], [0.06921812732305942, -0.13074465470256566, 0.049174517276737786, -0.1384444672200176, 0.030652540336828366, 0.13379164506019375, 0.0050247009434821605, 0.07593673468913113, 0.06156333530340261, 0.015745814911062608, -0.01687038975797324, -0.0786932686100733, -0.08346109066764008, 0.031111777068509455, -0.03683021842652556, 0.09758904035853672, -0.09741366577061306, -0.1541641509322227, -0.034816677668718106, 0.2388897599532388, 0.008333542263599338, -0.044974181390916114, -0.10757022582097078, 0.037311863309922075, -0.04166627202232204, -0.1664472765001438, -0.01855416625667704, 0.04753522769683349, 0.06396447753924256, 0.05838148228551093], [0.08078034582905316, -0.14274617803537068, -0.006997733226547776, -0.12300116708248202, 0.1657037088461956, -0.1752903027385864, 0.016799844416231634, -0.2101439326870465, 0.012624709019045239, -0.09648378195243634, -0.08567545188194245, 0.01592624112154389, -0.0792827196309151, -0.048147343706724806, 0.037065815936298055, 0.09705378879571483, 0.08749676331307982, -0.12667630295364496, 0.17791986743332783, -0.1292691425444268, -0.048212786348096635, 0.08296808113232955, 0.04809501829012879, -0.10069767728516328, -0.0734538048512756, -0.09546732615149846, -0.0806108090807904, 0.05614776834071338, -0.08337247077668604, -0.19941087849494057]], "weights2": [[0.05352691014021919, 0.15117888160180157, 0.012067349016412307, -0.03344313075127507, 0.05619666668857143], [0.09698184935447879, -0.007628221141882387, 0.10077301553035643, 0.0648235184108441, -0.09679280255606393], [-0.044327009569982714, 0.03995404816790567, -0.07405466525164531, -0.030183402169751985, -0.1256090741400919], [0.08572756847103936, -0.018189242602278874, -0.27877381753945946, 0.02180097280589155, -0.16691197579801317], [-0.02692087972527556, 0.1299806930341005, 0.04985545635647163, 0.234222189428827, 0.13525854155172887], [0.2196979594565417, 0.06001445926685614, -0.02293830964313463, 0.1615717500877809, 0.039993879791468116], [-0.2482957458558362, 0.19723353527957554, 0.21194041082733028, 0.03242456323285464, -0.014850480316963163], [-0.10364405991347483, -0.10491300157457102, 0.02436065120312723, -0.019740633927621015, 0.18206138722967616], [0.19742492932552597, 0.18493687853772758, 0.04154980773962315, -0.04086154001196557, 0.04204631117821764], [-0.1147620944685751, 0.01810153687397463, -0.06028703711734873, -0.14728032316142184, -0.20788197539064332], [-0.023254631506703857, 0.08889941901102864, -0.06694838341208988, 0.0036736740887629103, -0.012350487397530198], [0.11688219764511881, 0.05791139894892523, 0.007671131474377195, -0.138958208340971, 0.01454110770511432], [0.11238181579969955, -0.08736022662804785, 0.0869991954326113, -0.08648908287099218, 0.07250513890642082], [-0.1853513016137893, 0.10268154566412423, 0.045536016715133604, 0.11449873909670778, 0.36680664379919325], [-0.09325751989320946, -0.017903649121334447, 0.07229658879659036, -0.17511674771312224, 0.10244221524294131], [0.13743482985533703, 0.19776884327654076, -0.059229924568810814, 0.08899731771275865, 0.03202166622132894], [-0.1377153181916236, -0.016924063839920685, -0.0761807376000149, 0.037197633958921, 0.1200367359633398], [-0.008110785379737154, 0.060386758702295, 0.10099597355258064, 0.15385264869588133, 0.13638414734546608], [0.07600687263916996, -0.13854980379290716, -0.28559047057963144, 0.0018002822222105608, -0.13716266225676052], [0.021760545920201935, -0.08093649247449405, -0.06912653862538128, -0.18944489143911863, -0.0013074507297395723], [-0.024411699854147, -0.053277042206805306, 0.10259171322551447, 0.0745581879967234, 0.11290830787482042], [-0.06051310852931011, -0.04707646094335193, 0.12197216545230337, 0.05450026306707517, 0.14760620839365235], [0.10978203929379755, -0.09916170070520194, 0.05335769830608914, -0.09536612451299718, -0.051166444727098706], [0.24235686523118094, -0.061580870627668795, 0.1546702032191699, 0.17537201916589382, 0.11606895975987629], [0.08449316044055125, -0.2336615377272665, 0.03423315093940317, 0.01023355715139463, -0.06538531286002597], [-0.11563064514588267, 0.026066537299466053, -0.1040345249177658, 0.15385107061085634, -0.02325820225302798], [-0.17491267314217132, -0.043111561023562214, -0.2479255902820825, -0.11597405270007306, 0.01751340555571129], [-0.14554941574144487, -0.20756812852215756, -0.07937673556097562, 0.138482877168285, -0.00869142466860973], [0.061276952674491784, -0.10395978083135654, 0.05538887290553658, 0.08782026632616427, 0.023247273205129093], [0.08868746721186259, 0.09340026883293578, 0.03266536409792055, 0.1069095234100914, 0.0014280153917734305]], "bias1": [0.0, 0.0, 0.0, 0.0, 0.0, 0.0, 0.0, 0.0, 0.0, 0.0, 0.0, 0.0, 0.0, 0.0, 0.0, 0.0, 0.0, 0.0, 0.0, 0.0, 0.0, 0.0, 0.0, 0.0, 0.0, 0.0, 0.0, 0.0, 0.0, 0.0], "bias2": [0.0, 0.0, 0.0, 0.0, 0.0], "training_buffer_size": 0}