{"weights1": [[-0.1307725600123404, -0.0069797773027871594, -0.03508993574477674, -0.0627604464747179, -0.03809165235914486, 0.009382580082551566, 0.07948066322962445, -0.1353848391538021, 0.02570849180957073, 0.025012078525165016, -0.032339268293534104, -0.021111488861757895, 0.10685260012360381, -0.04162656371172879, 0.14361580869116564, 0.05837412267471773, 0.09610767017921645, 0.0626057410819422, 0.009635211070107466, -0.0751901627460172], [0.005642381374576145, -0.39618680797159683, -0.028768586164577954, 0.054150816852353935, 0.10743732971434039, 0.08432376682968189, -0.09946783145116216, 0.05898289302835429, -0.054468357114960245, 0.04618718522208182, -0.05516330157822437, 0.11222279004624863, 0.05750399551290102, -0.17388192660679833, 0.0024767703738851287, -0.19139642503180657, 0.019463770130202313, -0.0681861563328334, 0.12107395161386987, -0.08740869402797735], [-0.10782807200867453, -0.12858720462712414, 0.06426456229853848, -0.2228823299913378, 0.04994310420299519, 0.1451213071108771, 0.12875766227660493, 0.0998650026763086, -0.08452279796405036, 0.047189454932659226, -0.09659135597287573, -0.17552344677839615, -0.106366896236139, 0.0029878878846296506, -0.18898350820523596, -0.14457037090753924, 0.2141673550124283, -0.26966639220486827, -0.12099149275005501, 0.0017414784805104512], [-0.15245486734208952, -0.1498720602218733, -0.02709945657357506, 0.05613490261517543, -0.009579247865137712, 0.06732999296317342, -0.04296575184393281, -0.0602423848177855, 0.013991441508538574, -0.14121092952562983, -0.02591130562466413, -0.10887347795623994, -0.1118060754376275, -0.12391621452557165, -0.028510705913378443, -0.08791866989180255, 0.13186743093381836, -0.03200869131242453, -0.05349305973315608, -0.031746391116110294], [-0.06067592588402923, 0.040008625805822914, 0.04011872207309808, 0.29798555908190233, -0.03952566057349112, -0.16333090616052018, -0.022088259356971396, 0.18660868626246652, 0.10443750823277431, -0.008468179688824616, 0.23856954889087106, -0.06318362014661154, -0.1322606412116571, -0.07316178199554278, 0.09477321030662109, 0.050182100555381484, -0.03476039605633397, 0.06591538168861902, 0.04222715725599147, 0.09057031348946433], [0.20626289351286797, 0.004405307269307879, -0.10400264460864128, -0.04798266813798784, -0.012136123498164182, -0.038410464378621986, 0.04927383853346187, -0.0567702120956701, -0.10590118250787113, 0.04108419362891447, 0.050574213435245485, -0.024866123105338075, -0.21766517498525495, 0.14253937421276305, -0.1415127094791595, 0.2054126943541542, 0.017934511310156703, -0.1093765187998994, -0.19079782957514974, -0.025177489940909153], [0.06804173235850375, 0.07558699578901573, 0.10126314915090931, -0.03737972535755933, 0.056980973883602896, 0.11029656082928299, 0.13593668939538414, -0.06532937602454185, 0.019466483046246347, 0.07816910532413014, -0.0067659184792977075, -0.0018577491804724297, 0.10431026437604984, -0.015157581103737378, -0.0007015298084151009, -0.19525126546859436, 0.03308303991681918, -0.07491640249540948, 0.13525662852630038, 0.031150365350386178], [0.03439876788506454, 0.007364395057301679, 0.07086657465709163, 0.035718354170636755, -0.16259559606517462, 0.19630641001163437, 0.004844236324544281, 0.02204452442298661, -0.0186545874172647, 0.07926307282308549, 0.07361373305692717, 0.01920786992179807, 0.07339158727791019, -0.044931012944884226, -0.01335281709460299, -0.05785547207273509, -0.0851956465094858, -0.0446302555277244, 0.05794432580024346, 0.03550568089930269], [-0.10771351332643253, 0.12366979871977475, -0.06826169120299967, -0.009900735675738142, -0.004795894501786087, -0.03385024554489701, -0.003876453749870948, 0.035542730775097335, 0.07944296984078221, 0.040984506976179155, -0.013753768708782366, -0.0046737673675941015, 0.006590427848221352, 7.840118078406267e-05, -0.04788127325115288, 0.18695142375898333, 0.0800714791771296, -0.0716404720255131, 0.09616141062491447, -0.044293253034875475], [0.14912095497667438, -0.011044856632046414, 0.11780636764233564, 0.1352900429205873, -0.08075116828400436, 0.0052737123016670115, -0.0456388785590832, -0.06699698252839331, 0.025761067588224502, 0.13493337379431988, 0.07618280769971575, 0.03211879503920496, -0.02095545321748979, 0.02150102600496576, 0.15308033276094446, 0.11995609270171106, -0.10579981136430024, 0.0378008587318578, 0.030849908506770995, 0.016653879430084475]], "weights2": [[0.024391073601649195, -0.06278216449273887, -0.08182180472043321, 0.14394621077481176], [0.1213336707100578, 0.07807452947569152, -0.06659993832072363, -0.25867308810198003], [0.06605520692058861, 0.010729777157464543, -0.14024615188952252, 0.05627165148812953], [-0.06754342273284165, 0.10097697290267167, -0.10352030421578731, -0.02886963738926225], [0.03895449770314353, -0.04892051470144697, -0.09298258554539131, -0.09591024369829967], [0.19146837940443587, 0.06636358385853579, -0.09952777439261913, -0.003920342792565461], [-0.13738078012839394, 0.017473140743896994, 0.12565132196190706, -0.1411107567229258], [-0.11038804598513222, 0.09089319898653551, 0.05822486099283493, 0.017286487063363817], [-0.19185461635182843, -0.03784374266186763, -0.10890744138701768, 0.010459142820862775], [-0.10155149771081502, 0.08202790163485922, 0.06284212000575339, 0.17082612289306434], [-0.20691701335452992, 0.0552424728415794, -0.12239312919151293, -0.04965451806142265], [-0.12895594187478984, -0.07167845463959334, 0.10203923545090923, 0.049845603950958293], [-0.025220188419186537, 0.09851446981890903, 0.10729051940105477, 0.06794504283868633], [-0.15336745801785553, 0.02921821204661576, -0.028084371267279085, -0.1668014482105522], [-0.021275995767126743, -0.07168403943786852, 0.02847468968007709, -0.09478648749563762], [-0.06366111378595744, -0.0801616734160118, 0.05786198261054063, 0.03062336897567082], [-0.13828302150115482, 0.1570752815591996, 0.1002830084173309, -0.04216089667375256], [-0.12492696077167782, 0.12583730412773844, 0.031433008043570985, 0.027806473404040584], [0.06724352224663482, -0.11619457229067326, 0.045914766613350366, 0.030423097508819965], [-0.10904752610629664, 0.12106691672614732, 0.190455333872075, -0.1631891565561132]], "bias1": [0.0, 0.0, 0.0, 0.0, 0.0, 0.0, 0.0, 0.0, 0.0, 0.0, 0.0, 0.0, 0.0, 0.0, 0.0, 0.0, 0.0, 0.0, 0.0, 0.0], "bias2": [0.0, 0.0, 0.0, 0.0], "training_buffer_size": 0}