{"weights1": [[0.026416280527679345, -0.03491218481619537, -0.011645480887031769, 0.10584466800693484, 0.12234059810577039, 0.06027199555242507, -0.0911069974474231, 0.03234000215353207, 0.012838954209491339, -0.04825142880158816, 0.11742620876552992, -0.0732465089582117, 0.004351701678078256, -0.09932704740108891, 0.10455526050706264, 0.03887464230645404, -0.03425365110850346, -0.06375561083758068, 0.02154315405266069, -0.054937042052099254, 0.010545952071078927, -0.154244322327347, -0.12159035374672432, 0.22237307498356507, 0.06299061562656276, -0.08534074409642772, 0.023111880970941547, 0.14618360747018286, 0.1693214971058652, 0.178166632112338], [0.1011782373706016, 0.013470008031658154, -0.06867336932526157, 0.11103114164568904, 0.05242326902984962, 0.03354308128355648, 0.141489253076833, 0.12794442844100226, -0.07883952154620519, -0.014252748115017776, -0.1985205206684748, -0.14455985169507116, 0.02762793532743192, 0.06386268235888569, 0.09088955762296053, 0.048850504298232345, -0.2844550583781913, 0.10619362461062519, 0.16838446191086037, -0.08874943539009075, 0.07318816497314383, -0.015568563409994197, -0.008850512079352418, 0.03977642792343492, -0.01865326564249067, -0.10198525278372553, -0.14968828936468978, -0.10404700194204322, 0.04659503980909432, -0.005300462257514533], [-0.04373172928049493, 0.09007517064773037, 0.027488714344904498, -0.12395160608458473, 0.024017891198422167, -0.07373650185377782, 0.14308954213953184, 0.09633702816120472, -0.16107390475006883, -0.14493611373012866, 0.035481740964922376, -0.10422340298551927, 0.038948590966284946, 0.08089192931356509, -0.023578664025123958, -0.1851553633051222, -0.034362114132536585, 0.07830427000927806, 0.025243204521744746, -0.17418032788514182, 0.06710182325675743, 0.06583947491622073, -0.00689326350328213, 0.17666300805828006, -0.005477995552420366, 0.011282020965620282, 0.13482208699124215, 0.05141994961405717, 0.010690371585127088, -0.06807473205676334], [-0.05632606933016815, 0.12161566594980125, 0.04231803649228385, -0.14510761221054921, -0.044332430332630096, 0.02008504468641337, -0.014860784657993092, 0.14040979595129294, -0.05734620550965385, 0.042288739441036616, -0.0688941121788149, 0.13839822976596436, -0.04036768503233465, -0.03639480498379772, 0.04962879023567951, 0.10172030006336104, -0.022253259103245687, -0.19498699690635074, -0.01568163350377304, -0.07004764907325288, -0.07943172792537177, 0.01836100424182686, 0.1714306136632622, 0.1583147895078246, -0.054339326094249754, -0.18062649439363715, 0.020583942321757767, -0.018694151725878246, 0.03098338145721117, 0.01628033840213282], [0.1363509957469454, -0.1931804812442205, 0.057667300538648075, -0.09216733638635159, 0.038022204088389994, -0.12278177336246753, -0.1731847700868575, 0.15928630831003845, 0.16068735986992955, -0.04569884058135815, 0.03497104578329811, 0.014074231154045304, 0.06390282921247485, -0.03949056784890842, 0.0781765216998696, -0.03391342025971774, -0.1696912434025104, 0.02864309856514445, 0.11913748382271286, -0.12930790791708213, -0.0031269712336502555, -0.040195175708080934, -0.16950062258761456, 0.2199908649600929, -0.028321735918993354, -0.25648417051596745, -0.26928992237062926, -0.06485641283417512, 0.23369873218170364, 0.0064604191260572985], [0.041945565708541105, -0.16667600704232233, 0.1952157222577374, 0.05576849458949632, 0.11622130279958176, 0.05097013941620762, -0.15598394008076455, -0.0005338586921075109, 0.08152988206003645, 0.0937579820396166, 0.08871900387010914, 0.10093010387250519, -0.027218388755705855, 0.03925503108049763, 0.003804609815563992, -0.010839430177886168, -0.09678667844822746, 0.062396631257319826, 0.12353071565447467, -0.05268288780340174, 0.0545156691483931, -0.08333159847785421, -0.1074849514131862, -0.025640589929415293, 0.13775725358064417, -0.07496795928338326, 0.046573264030741225, -0.05540986975128675, -0.03610474730106502, -0.1146987481112237], [0.11576130363891282, -0.13034478733222746, 0.1900529493829171, 0.025017391010731888, 0.06359194781531384, 0.007757489121612571, -0.0006720196702622769, -0.022287064746819726, -0.034407989586475306, -0.0848110202773883, -0.17644851598961964, -0.06247302425357526, -0.007116405466147487, 0.05350051120411863, -0.034855076269469085, 0.23848179094404018, -0.001268246672999135, 0.09900665487108579, 0.10986996524599749, -0.0036091844896681633, -0.030287343416989743, 0.21674942145118764, 0.06568397158324729, 0.10422534529140859, -0.1092287595222873, 0.003731287832382416, 0.1877581301330799, 0.12389476297979561, 0.03949836150604044, -0.12407497013335933], [0.1436700396157423, 0.05213318276323521, -0.1401446907005412, -0.04051913731983731, -0.144666869041081, 0.08223741185004285, -0.04862094040076959, 0.04685877501756383, -0.04782211866529221, 0.04605412013983425, 0.06750965549427942, 0.08879362240216965, -0.010017546869346368, 0.10528187829262398, 0.01761886083781086, -0.03652053557490711, 0.007863560829552411, 0.10786125644384995, -0.043688059076368385, -0.06839456713332574, 0.06303833904169075, -0.05961569968167906, 0.1430931986121364, 0.015605554848884345, 0.04327064651316367, 0.011361724032994408, 0.009042418231664935, -0.16259511433759855, 0.032921083412151914, 0.006238388672647498], [0.08869340374538648, 0.0469258788621092, -0.017312981786969415, -0.01841617342466672, -0.02384227403301475, -0.041528307460634545, 0.12294378961570018, -0.09041471488477432, 0.14608901775194508, 0.06958826821123358, 0.0471778640597785, -0.12963203963466616, 0.049819682923515615, 0.022418158962564605, -0.07836493157093255, -0.07477650427142796, 0.009960575004768825, -0.17088434879119618, -0.027517490141165054, -0.10070442929424517, 0.10218652685449958, 0.010928046708292052, -0.01233790058042339, -0.00907475295503225, 0.27551986074433965, 0.039272463060004204, 0.21835137987640643, -0.027698573293321732, 0.03402550337804759, -0.20238806727862083], [0.09693028731221948, -0.17053419022925856, -0.006495775688228566, -0.1303132110479856, 0.06229593453181557, 0.045595988994391566, 0.0013615435894988252, -0.052608627412782494, -0.028294642423176156, 0.09733369638235786, -0.03770737361157063, 0.008195167321509508, -0.21072826750716334, 0.05486564618718001, -0.007609359515531296, -0.1353325258287554, 0.06859675080287576, 0.12131657187438405, 0.11434759011257803, -0.06438304017161194, 0.06788739708317791, -0.06162835517624348, -0.06402016276468979, 0.034074903261863625, 0.02712011887730937, -0.01479442793130727, 0.11278107188100767, -0.07388300388842449, 0.14206388936088496, 0.01500075706834528], [-0.1677403179259471, -0.040724610615831505, 0.04104457504879819, -0.05554651257756069, -0.048875558129162916, -0.09102537318760577, 0.08776782897007752, 0.08987229914494899, 0.040379105073793914, -0.07250207270959907, 0.029031743602904576, 0.20008814637436434, -0.14775420349342505, 0.2029884301575493, 0.005697797105637836, -0.07876801553727582, -0.11657789399486258, -0.18150786631137572, -0.06582948868577491, 0.01496511444910306, 0.10312289276445051, -0.05317773324689976, -0.05672949726009238, 0.05955435358476742, -0.07945717389912005, 0.17603737075567513, -0.022084786747837357, 0.07627258392112836, 0.02785039569163011, 0.2072985902106153], [0.13964153158932666, 0.009623304195625225, 0.058968789374460366, 0.18979944614866595, -0.04472579299589665, -0.1539904130579346, 0.08258458026704568, -0.05107176185224598, 0.017024673349495062, -0.045714420487266136, 0.04907918631794902, -0.028002074132328025, 0.085676315316825, -0.030739019664550445, -0.12189441823951595, -0.055006662732999215, 0.005419928490638192, -0.08304500936569219, 0.03626245760286246, 0.08506207341456873, 0.15370511953096352, -0.06620843838389431, 0.05571573869116994, 0.04605926545625571, -0.06940005074484411, 0.004800402881648629, 0.03587397345720387, 0.052007681658725526, 0.002869583584779725, -0.0980823003834021], [0.17394891401937024, -0.12424143039578622, 0.03649460215105581, 0.01783581251135041, -0.025741042169250158, 0.09203112564159584, -0.00856001412578835, 0.014810252871849075, 0.08579362084845404, -0.06823553744420034, -0.07480778187303301, -0.21146660925954006, -0.03682896071271422, 0.10275230992879714, 0.048691112095290534, -0.023637181222161272, -0.0410499380461139, 0.17152064931295555, -0.00754112295664504, 0.02487071927981657, -0.0520030856811774, 0.149355240908334, -0.013832315483749517, 0.018429185883456205, 0.02150604806581008, -0.092469480873628, -0.12822738863946276, 0.1316045982457786, -0.08477425954736677, 0.20194920288511234], [-0.07745141174929358, -0.009301234932943738, 0.13632894906210935, 0.2490985233366368, 0.007700845760950294, 0.09213526847305675, 0.006906039740214003, -0.16672462492409637, 0.07564450838860336, -0.021328911386591876, 0.03814671084412102, -0.02214278397962264, -0.1224844281745712, -0.0018606260554923757, -0.19692403299826147, -0.04349942835291817, 0.0813438820946248, -0.014192193638714235, -0.005899502242095666, 0.05243894639269826, -0.0720436231070281, 0.0008555251138193958, 0.048978626026528756, -0.0663219035194665, 0.04644831048009248, -0.01141524399040636, -0.10248517284108767, 0.017555762404660065, 0.03172443951918622, 0.02745612521138], [0.039489866219516265, -0.09892863661986213, -0.12370934678852635, 0.1379789309407576, -0.11765504076812042, -0.03308131733325705, 0.020791901846936498, -0.018531912031526068, 0.09413261003205647, 0.09906417572832998, -0.13418614474462795, -0.055686948209836634, 0.04139141400322946, 0.15067915186440606, -0.02171505488738734, 0.15216237144395606, -0.14203483291444688, -0.13260483121569658, 0.08613107132289631, 0.0024275617804551536, -0.08439002027449759, -0.066804082999817, 0.011682218228563437, -0.022003621029439133, -0.08792704252114324, -0.07230579627612195, 0.011967928870545803, -0.07146785623920955, -0.023067610713605437, -0.0020851285466011375]], "weights2": [[-0.03629408484781438, 0.021931720472626003, 0.02775374115596778, 0.04577116021384259, 0.07163742490501249, 0.29260459157241164], [-0.07375195534991939, 0.019045864778624477, -0.03948376861739684, 0.13783543342219537, 0.0192182836391753, -0.02987456733489488], [-0.13529724104575866, 0.1774547914773813, 0.07829230127582092, -0.05391924046084226, -0.01838898299878398, -0.03338802588808686], [0.0708217100003936, 0.18653950863549534, -0.04322950866034145, 0.08928587514355374, -0.06740124102415884, 0.18550055961423295], [-0.015008024718356622, 0.05555038095538239, -0.009754240405455932, -0.2065194786158917, -0.16572235856550369, -0.1742017873277217], [0.022542165179644354, 0.06565707255894275, -0.10448184462293056, 0.027467113589623466, 0.09534691308586735, 0.11876121810475973], [-0.030488958822430537, 0.04410715204726831, -0.07037179718413972, 0.0564379368689264, -0.12879333828161166, 0.061685713517372266], [0.038932919250711476, 0.18725321333579403, 0.02627671083003809, -0.029818729363952336, -0.1278489263235739, -0.11573164849375384], [-0.09488178984949919, -0.020163139836743494, -0.1126996412456896, -0.19719839832968247, -0.26692987121537054, 0.1425588058080349], [-0.04105338372474632, -0.14984104359776804, 0.09615908994268002, 0.04755653633362576, 0.028385323533881443, 0.03345076440419847], [0.11920131860880175, -0.14164195737887528, -6.635258459563475e-05, -0.06758957663308245, -0.04791946673077209, -0.023023501833377633], [0.045010006448358085, 0.09502434228416279, -0.023214855415960033, -0.05665755286884672, 0.25784665942892887, -0.06980196716933132], [0.009534389268032004, -0.02333536454648031, 0.21869208795635725, 0.033706720761605996, 0.1505047397527792, 0.047698218930136704], [-0.07037990023680939, 0.04456788132840903, 0.10112831034026937, 0.03345703407454839, -0.1308754582347663, 0.03488945738938384], [0.03500589551919899, -0.020582011943004026, -0.04812886746261565, 0.10283891830858659, -0.060420852795254415, -0.07861832160612268], [-0.1031216509780023, 0.015043821445394706, 0.13577052824097066, -0.11343945059077676, -0.022275960482726252, 0.08673802315525089], [0.03569980878272003, 0.06854563871689044, -0.09401693065817246, 0.11306831450156879, 0.1473759082063337, 0.08968761961255246], [0.050855546665300705, -0.004512478431185944, -0.0286971968426884, -0.004266055557339881, 0.132637146437508, 0.0738107371225647], [-0.09419518309163229, -0.011786407160984842, 0.08093692246424741, -0.13504702878470018, 0.2933461307342176, -0.07909866408929159], [0.012754420886827692, 0.2642640240762399, 0.2123623234433792, -0.06273619382914572, -0.06112848455318194, -0.15180657981444098], [-0.056561741101837676, 0.06618216905983161, 0.02230681133881445, 0.14567672655398078, -0.004573402709686066, 0.050617278492957864], [0.03624173984992048, 0.0044687893161711, -0.20089844713716368, -0.09149757123705882, -0.03193571916092943, 0.07968185643538214], [-0.08555202598793482, 0.10544789283388228, 0.007410123502082722, 0.22647048319633242, -0.05913746104511587, 0.007848244842340358], [0.11455551448753767, 0.04060156968453894, -0.16157602309792754, -0.002209829802652472, 0.14873904375407807, 0.1030041535555905], [0.14414720229060987, 0.04019578776343586, -0.22650725456257714, -0.01761904084461575, -0.023445565895438693, 0.08033366182779508], [-0.025977423710283512, 0.016152635525236735, -0.011883786391646547, -0.08857397299466223, -0.23373412352016434, 0.013566267072582473], [0.1951470410052465, 0.08975422524419012, 0.057781729083380355, 0.1097011765123755, 0.0006275198169871979, 0.09923877660321544], [-0.06835206041918572, -0.027967831459606504, 0.10509061875767099, -0.06706723319815742, -0.04586656013312554, 0.11528020285398961], [-0.029212574740420133, -0.00949174507369325, 0.10133465142559316, -0.10126888264198466, 0.08926349966881943, 0.17170518107687185], [0.00915165276662662, 0.05556450352576406, 0.043333048113097836, 0.044363152322438565, -0.017820318089020428, -0.13922988854457674]], "bias1": [0.0, 0.0, 0.0, 0.0, 0.0, 0.0, 0.0, 0.0, 0.0, 0.0, 0.0, 0.0, 0.0, 0.0, 0.0, 0.0, 0.0, 0.0, 0.0, 0.0, 0.0, 0.0, 0.0, 0.0, 0.0, 0.0, 0.0, 0.0, 0.0, 0.0], "bias2": [0.0, 0.0, 0.0, 0.0, 0.0, 0.0], "training_buffer_size": 0}