{"weights1": [[0.036084480071852075, -0.0769817238893578, -0.028753652914642203, -0.0622404466888002, 0.02701905842700679, 0.05549609974933883, -0.054574337526069876, 0.05320416523305099, -0.112352847066419, 0.21114112038655303, -0.04139451771628508, -0.0612334443206099, -0.07179321869219889, 0.08422358111274257, -0.1703531893144451, 0.033744880291724205, -0.15280061622678442, 0.09930050729504586, -0.014110525756556795, 0.08859115539623152, -0.11511728296781745, 0.07480376928635045, -0.016487585173922577, -0.008265338515609432, 0.049461728919459096, 0.1752717634867019, -0.08649667163051676, 0.00893415691011253, 0.020888051009555722, 0.050341616449373586], [0.05683679575623929, 0.07436977794692716, -0.0021411820377726333, 0.04085516707132511, 0.03181507220285306, -0.14944440294618686, 0.10762747119720142, 0.08845371797820123, 0.04944606602443889, 0.21916487352457154, -0.12878541124136178, 0.09759563124114996, -0.1169923400224743, -0.08834722343597856, 0.217282396787693, -0.0033693920473137694, 0.032868281528917666, -0.006768570159194457, -0.042292786528689265, -0.16429984912914947, 0.10695433967648749, -0.093265396181351, -0.030140633748278103, -0.03588292535197746, -0.07950183367018512, -0.08301817544341633, 0.05135997330620105, -0.038034114116344775, -0.20954483986146621, 0.040681218404789124], [-0.03581610212584515, -0.20717073014589144, 0.03925195790824018, -0.06427535397839822, -0.054971011857912234, -0.006911736741389781, 0.03602829627779571, 0.238178003779452, -0.05187936962666282, -0.01975185394288031, -0.10365187264405143, -0.22065356565507793, -0.18114777536858773, -0.08810158821873322, 0.020509474865652272, 0.04845825690765682, -0.17341282446146208, 0.05171031333510542, 0.13945772758716898, 0.031242470004097928, -0.10236398118119412, -0.21935571181482666, 0.1474941991960542, 0.03244349000701543, -0.1486345567013087, 0.021603818941241318, -0.2898342904370596, -0.006925783995893092, 0.09140989774668716, 0.1446995638101258], [0.02769769421949583, -0.0016660916199484112, 0.0038715141694820997, -0.13725184563736312, 0.06532336979887529, -0.04174394138020757, 0.067562236024063, -0.03982033889929198, 0.08143556297058246, 0.14523267187000172, 0.0942892757151688, -0.09731140612237145, 0.09660902459729286, 0.04338527089125085, -0.06516171790842726, 0.025981602890643524, 0.005458156157742088, -0.14220908728508794, 0.04750935944982554, -0.003254306754269666, -0.18027824000556664, 0.040263197702490594, 0.07129436075807194, 0.07105218877129828, -0.007464513676930922, 0.1567514102143542, -0.06794907143944132, -0.07238750472717513, -0.016474255017743397, 0.028816911799782432], [0.10590449837972747, 0.03485712773915743, -0.0072321995615728515, 0.16169925408732927, -0.07700307333366468, 0.20002822374765558, 0.054205336798202476, 0.0016723420929483789, -0.06354761091914882, 0.1979244871817613, 0.07512548230666433, -0.08499906353254838, -0.08346838071874046, -0.3260944733770091, -0.05147723209835962, -0.03945881501503176, -0.031625997411557874, -0.1472817519399124, 0.10710162824280454, -0.23774286294229863, 0.09667286986774744, 0.019517336622163425, -0.06230711866703609, 0.18974125754816318, -0.1464572381061425, -0.009944290950044407, -0.03815756007013042, 0.06992459535853902, -0.051043298659929195, 0.0338723189595743], [-0.0209564085342526, 0.20683331540420596, 0.00890452011447204, 0.23319271827154672, -0.020109874409130098, 0.1461982649418515, -0.19429247146742532, 0.046562875131734904, -0.06429822559941493, -0.10658094944668138, 0.1151034248945056, 0.007706972233081944, -0.002833245986021701, 0.011123982262281206, 0.024349743739473333, 0.06374223315741745, 0.0575707610540008, 0.05298945901524199, 0.04837210631564398, 0.028853527205857106, -0.14772198503103445, 0.13482623975652377, 0.056075970008112055, -0.021061338597726048, -0.16145726804359722, 0.08738319825225035, 0.0024348695545166454, -0.06042340462411429, 0.09521017512774028, -0.07137048815357515], [-0.06281084867843338, -0.07181390788623897, -0.03819592784418679, 0.005933667592030978, -0.08751259245377709, -0.04284860357910565, -0.10211445635905894, 0.04465237508570316, 0.12630214287665323, 0.2315484536044409, -0.044487909359468295, -0.06808943829744848, 0.13235883234563364, 0.0006671094899936673, 0.012457196351199297, -0.10471928293887284, 0.16640035728796518, -0.019904760627201763, -0.05496960502455708, 0.04411654451021605, -0.12713793126797168, -0.10392071533755498, -0.13721268115684457, -0.09203607964978155, 0.019900973767667102, 0.04911654697170362, -0.02342747902903908, 0.07481131097905883, 0.027986650055772125, -0.04660704481121471], [-0.018745155291812202, 0.14172332031746407, 0.0806349816902155, -0.02436304354358708, 0.07923703315321534, 0.04134410390637933, 0.10727975152676934, 0.059753133208575, -0.05589339686841088, -0.07250035220112744, -0.10954008120148367, 0.002193569985991973, 0.04549320586035674, 0.0017212359910826385, 0.0006889078829437477, -0.09494310273956841, 0.14410925085012324, 0.011642618349059471, 0.045629337384024665, 0.0865222171386247, -0.03850225711111123, 0.002040415325459248, 0.12643546812878523, -0.00954662253607768, -0.07742974016225879, -0.025005395121615755, 0.177011420695051, -0.02999721999530884, -0.013248370165305093, -0.09176690688437017], [0.07103177124480396, -0.01909513703734264, -0.16871328397481525, 0.022493329962490538, -0.02027735954514672, 0.17383063210210187, 0.039612506513141466, -0.013582077296628463, 0.011890512905329102, -0.11131054874249709, 0.16706650655734667, -0.16168799326866726, -0.06069972440202934, 0.125239237238619, 0.05772425167692455, -0.059860823415351753, -0.05677272548366086, 0.14661348052822443, -0.08587627659257013, 0.07807622435240355, -0.019148506137766048, 0.0005987782201383828, 0.03830751516153383, 0.03488490546230735, -0.10707304093942252, -0.011122884826752746, 0.0548777992387673, -0.21559790696753664, -0.0012343373950927218, 0.07488718801337499], [0.028637386145156818, -0.011268411437578703, 0.07528282794041144, 0.01896170677614666, -0.08681516473723881, 0.0632592244180433, 0.010537986108415625, 0.043445240842312466, -0.18317494831938552, 0.04623623728944026, 0.20626233600431296, 0.2310591591598894, -0.11229965623496048, -0.22874593658571418, -0.06604235630023297, -0.02447605398468802, 0.03019354662259215, -0.08023271656150718, -0.007695888967720475, 0.10493891968667649, 0.01015697291150976, 0.009570709078861591, -0.03990189234442419, 0.037373282874609615, -0.01296263269854326, 0.149838890227698, 0.0963724534151343, 0.022972018162606314, -0.11035553055621766, 0.07121658238912848], [0.09816843123093406, 0.053553353884731016, -0.061109785361220983, -0.03216939551770615, 0.006177487828103795, -0.09643644713879679, 0.009225584296404124, 0.11182082474203084, -0.05238943986301703, -0.11816643542896808, -0.10453776987508985, 0.005152262449602621, 0.06230651946947144, 0.05097703882568826, -0.03792805970967078, -0.001827012256956272, -0.04542321964143647, 0.12155517030689261, -0.09449617238471139, 0.05581667000354155, -0.04345280545490357, 0.012342503373733283, 0.06946909775542237, 0.09963612674910743, 0.0008221009588237219, 0.09710881903989178, 0.12610710957648538, -0.3335913927505719, 0.06666062202900012, 0.08553735755054338], [0.005620406776847403, 0.17478359509346353, 0.07660761494962842, -0.10252842587957478, 0.053799654064625085, 0.007894712459117317, 0.1006404453587402, -0.010194098946895864, -0.07623965159797966, 0.012729722918445983, -0.07268469392404608, 0.06912182375573495, -0.061063144041153865, -0.03801264773078614, -0.10056813562734213, 0.03439112706418339, 0.09726147308804521, 0.015011802376716902, -0.025487887821508542, 0.06966586749589886, 0.025705552869703274, 0.24887423287818564, -0.013396737099707918, 0.04729917420666119, -0.06062180887006555, -0.09418538156580814, -0.10045562534299596, -0.026233434625505633, -0.02604668310709651, -0.14190968162589165], [-0.043085838278429184, 0.0794041095747202, -0.025684510100998172, -0.05024181770564362, -0.07823265364774301, -0.056790453711532386, 0.004436896989507939, -0.028406602164304757, 0.1209891236759889, 0.11200946743456319, 0.09507057078023823, 0.00846551898695257, -0.22023299067996846, -0.05748017908242101, -0.16641937851144747, -0.16887759843485395, 0.04529225568855322, 0.11739275405845476, 0.02881011501210016, -0.20446141569554477, -0.02804206043744652, 0.04846879391979622, 0.061229074925571204, 0.023593648078996533, -0.015693517553353794, -0.0619936805294297, 0.07845229163687018, -0.10715905282822996, -0.05565519927635565, 0.02156071628891145], [0.03527181136305858, -0.18556839906100797, -0.126754230568801, 0.046878281165092586, 0.04635437680292306, 0.10880500707002545, 0.01333479775440466, 0.02750791039175799, -0.12717473149362932, 0.2675703394936119, -0.0582842375584906, 0.13860857804695176, -0.10298491908745949, 0.0031830914341399834, -0.14787656379920341, 0.14500240743854736, 0.01803158355148818, 0.2265397088746255, 0.13193469513897754, -0.04083802242321991, -0.16707782515373193, 0.17250664387819561, -0.026172356101241412, -0.039747973366763834, -0.08586888574768915, -0.08298296534607585, 0.1214196997882838, 0.08026881019698216, 0.008513780316029769, 0.0753430835289689], [-0.045499943888537786, 0.06921342917632917, -0.16653368334403987, 0.1324720380036027, 0.16014025469795934, -0.06221639634845449, 0.00985585925218279, 0.0655101609750018, 0.04248746339773746, 0.06949378014969798, -0.05766769738903024, -0.053203805685669896, 0.047709345574561426, 0.09710051293349448, 0.08493803183301118, -0.07133803596949859, -0.11255610729624682, -0.02478424910823909, 0.07820513103034857, 0.09297632883702137, 0.0043317373626930375, 0.11002344098230957, -0.09272111423440547, -0.050813021099682804, -0.0019315878436857424, -0.08470204137553336, 0.0663222961141996, -0.13662970986682385, -0.13009170052679167, 0.08530436165659216]], "weights2": [[-0.07470507169190031, -0.09882508740913676, -0.1239782841105791, -0.038142268954590546, 0.01677119996819558, 0.08448503185128281], [-0.15896060592675337, -0.0768447514430663, 0.09744085939469838, -0.07702091421112868, 0.19016407718710246, 0.02429770060329963], [0.03623815433456714, 0.049073276304776786, 0.030036168803634612, -0.1495702986963132, 0.0076037867399052425, 0.09290146227289592], [0.06087386062917595, -0.1324561328242204, 0.1059047217822456, 0.14830716547245823, 0.049267629924374515, -0.14855213997220845], [0.041584982610880145, -0.05002434115628118, 0.027878625400681107, -0.04876290746061984, 0.1241634471478727, -0.032666245792483777], [0.08025001226819169, -0.0846991643704852, -0.01231707611170784, 0.07053831714695656, -0.08277777099527203, -0.11765902437655984], [0.08040962932375732, -0.015785812292356743, 0.09213435281868512, 0.007690545315286281, -0.024855474052616518, 0.08209938276326209], [0.11801748584916223, 0.0006459655959141071, -0.0844421693991316, -0.09777050483400478, -0.09540867003031933, 0.06900338567135715], [0.007106210948208833, -0.028335238113958685, 0.006843803307846671, 0.047918874894357394, -0.057116018423815154, -0.19905597638435238], [-0.30416803042132423, -0.1546467680103956, -0.16064979211436378, -0.03602301648051846, -0.05973729329117225, -0.21548719819440929], [0.005470873094723259, -0.09630226250791302, 0.03019935259007543, 0.05712634735522142, 0.03545517618758346, -0.14659308146079122], [0.029068402183188742, 0.03360445256716345, 0.2792710862184739, -0.19694863723438266, 0.04416077441861478, -0.16079191998038656], [0.0014946394098947274, -0.1382866170656779, -0.09115977373746376, -0.01808504387621633, -0.22538138875798266, 0.01178150539474569], [-0.12523784684058661, -0.04676104947303347, -0.06683544424742567, -0.001460317339961787, -0.10196687323960994, -0.10838765409875084], [0.06917224414232956, -0.07786020719493816, -0.1736276627707911, -0.06085341724887472, 0.10014103453335373, -0.08079303540591351], [0.09808928659538803, -0.06295438592827395, -0.006436764342990666, -0.11334535377969164, -0.03772938305705042, -0.05187125181577221], [0.06877986288473883, 0.015019976397499291, -0.09500507572933868, -0.08885029106724568, 0.06887229319955816, 0.029407297282895786], [0.08831847298758412, -0.012057681501881098, -0.06893304165201089, -0.061237464152953225, 0.13544791864952643, 0.21423073627854772], [0.01866484290974852, -0.17185297757500137, -0.05154682142281534, -0.028096312332314834, 0.06481599067793406, 0.04778575982848464], [0.007156831796024856, 0.03914873376176567, -0.06653154346307688, -0.01276904687227263, 0.0107248974395532, -0.06679869282033557], [0.0692692159740607, -0.0038140208160507305, -0.0035511882973585348, 0.11868433012615257, 0.2159739105820994, 0.0685672190360799], [0.07266914409280416, -0.014271717508417152, 0.06254082426368932, -0.1272348455137969, 0.09093208331615882, -0.0910936298336683], [-0.08625659470796448, -0.20699108246468476, 0.07844126164008204, -0.009627593135278908, 0.03757106219598916, -0.05569269214376021], [-0.16197340648919303, 0.03328734789186428, -0.3367280593869735, 0.0005327925592575449, -0.14657185396474431, -0.039010867814616615], [0.05313068258351633, -0.061303959776134655, 0.03714458347836525, 0.011461686092144405, 0.03383620610330266, -0.1440238132239835], [0.24006542647520607, 0.1825306999968073, 0.13445475197928794, -0.07150381460553772, -0.11289168764042733, -0.06286848220760871], [-0.00012539067757436344, 0.08396960159129312, -0.04029800052909408, 0.0495538136627795, -0.08371935277975068, -0.06138978430211783], [0.1566886256074279, -0.11277781447555926, 0.06348027502052224, 0.031572443779317505, 0.0054402095948765045, -0.04044737027682638], [0.08850384484813656, -0.0006367902812503087, 0.17902775702269277, 0.08060280983970561, -0.008117705436609765, -0.1665750482154769], [-0.039576831403103765, 0.03404254955136396, -0.05944925400604374, -0.0114061690020879, -0.13741676881350026, 0.031140823496405907]], "bias1": [0.0, 0.0, 0.0, 0.0, 0.0, 0.0, 0.0, 0.0, 0.0, 0.0, 0.0, 0.0, 0.0, 0.0, 0.0, 0.0, 0.0, 0.0, 0.0, 0.0, 0.0, 0.0, 0.0, 0.0, 0.0, 0.0, 0.0, 0.0, 0.0, 0.0], "bias2": [0.0, 0.0, 0.0, 0.0, 0.0, 0.0], "training_buffer_size": 0}